72 128
28 -0.287643 0.107766 -0.108618 0.038460 0.261219 0.178990 -0.006148 -0.012208 0.088738 0.017282 0.330770 0.136394 -0.099962 -0.007056 0.119686 -0.115440 -0.219958 -0.211141 0.070663 0.328405 0.013207 -0.213732 -0.099628 0.114021 0.201517 0.260073 -0.368678 -0.064300 -0.047934 0.048736 -0.092850 0.240619 -0.022310 0.270059 0.141130 -0.291412 0.007563 0.286589 0.027965 0.124715 -0.077505 -0.009793 -0.102909 0.076026 -0.077922 0.058752 -0.162938 0.129627 -0.048643 -0.144632 -0.118843 -0.012388 -0.046036 -0.214078 0.352726 -0.043972 -0.046528 -0.151300 0.052466 -0.404607 0.174469 0.071425 0.097148 0.233142 0.304225 -0.079761 -0.189010 0.003689 0.279071 0.081190 0.030169 0.021841 0.047306 -0.243316 0.079745 0.026828 0.063754 0.228635 -0.139848 0.252267 -0.061176 0.057609 0.018645 0.006572 -0.135923 -0.155292 0.218609 -0.034501 -0.051908 0.028459 0.200536 -0.033769 0.076294 -0.109356 -0.187666 -0.020211 -0.045473 0.052182 0.134929 -0.088452 -0.102915 -0.006641 -0.184176 -0.143296 0.005946 0.024811 -0.005014 -0.131284 -0.095777 -0.237273 -0.019487 0.080535 -0.212957 0.010815 -0.087100 0.062319 -0.223710 -0.233873 0.222609 -0.223927 -0.033811 -0.176056 0.109626 0.111971 -0.160388 -0.110920 0.181827 -0.135177
36 -0.088313 -0.037807 -0.084513 -0.229369 0.193195 0.091614 0.197088 0.214349 0.220018 0.091130 -0.020339 0.188988 -0.182852 -0.013511 0.008474 -0.117403 -0.264349 -0.249285 -0.104250 -0.169847 0.129238 -0.052176 -0.060835 0.441889 0.045938 0.039298 0.005647 -0.163004 0.048222 0.165484 0.142434 0.227910 -0.024126 0.186101 0.005285 -0.165140 0.138532 0.271399 0.154670 -0.024056 -0.019188 0.324975 -0.113466 -0.115282 -0.149028 0.064066 0.032076 0.226748 0.179785 -0.147914 -0.062505 -0.134837 0.276291 -0.002700 0.305414 -0.134078 0.163970 -0.520496 -0.354167 0.014300 0.388617 -0.272513 0.036193 0.069490 -0.261215 0.189588 -0.097764 0.235017 -0.132199 0.164501 -0.033440 -0.136370 0.208000 0.012508 0.066051 -0.224338 0.140778 -0.045643 -0.200627 0.011339 -0.029089 -0.020087 0.039338 -0.332732 0.064815 -0.123817 0.191717 0.259273 0.024226 0.098790 0.160669 -0.098838 0.214582 -0.196546 -0.331292 0.244278 0.006287 0.082626 0.039265 0.407554 -0.343410 0.196531 0.157322 0.283636 0.507092 0.050077 0.499893 0.059536 -0.036036 -0.049185 -0.082121 -0.275940 -0.597185 -0.307301 -0.549620 -0.143805 -0.101775 -0.034892 0.237373 0.131686 0.000655 -0.326477 0.119222 -0.188380 -0.146427 -0.107523 0.095604 -0.107782
45 -0.173577 0.085873 -0.129289 0.011779 0.156233 0.148486 0.028973 0.165978 0.185217 -0.100859 0.296402 0.071366 -0.019774 0.072696 0.041389 -0.052136 -0.260324 -0.103760 0.005373 0.128570 -0.016156 -0.188853 -0.000829 0.308746 0.089163 0.265694 -0.237283 -0.083951 -0.067815 0.041313 -0.035260 0.182378 -0.012084 0.164166 0.163322 -0.148157 0.009723 0.273103 0.068142 0.009585 -0.087827 -0.016409 -0.115368 0.101708 -0.017520 0.057919 0.035039 0.234513 0.016972 -0.173711 -0.154906 0.049858 -0.079455 -0.192791 0.386388 -0.193351 -0.044389 -0.307604 -0.105690 -0.151167 0.231762 -0.008738 0.120587 0.207624 0.271922 0.105595 -0.258525 0.141102 0.134381 0.132656 0.032430 0.038896 0.026761 -0.242388 0.083304 0.094301 0.233913 0.137451 -0.269248 0.426495 0.023359 0.059022 -0.052283 -0.068556 -0.302945 -0.122184 0.169230 0.033748 -0.071896 -0.066644 0.264623 -0.111831 0.194075 -0.066890 -0.245328 -0.022578 0.150920 0.069422 0.079556 0.202475 -0.264167 0.042068 -0.146106 -0.020520 0.069362 -0.006636 0.181428 -0.237218 0.027936 -0.137870 -0.040052 0.153022 -0.398669 -0.098174 -0.107690 -0.174012 -0.369250 -0.142233 0.205733 -0.182777 -0.055295 -0.281806 0.232033 -0.013505 -0.241202 -0.061840 0.119676 -0.147450
63 -0.111623 0.058118 0.063920 -0.010257 0.187090 0.228881 0.136195 0.175341 0.169949 -0.075589 0.143349 0.148050 0.000733 0.093306 -0.057978 -0.079224 -0.238768 -0.281008 -0.082350 0.007275 -0.169547 0.120324 -0.007378 0.293263 0.041607 0.179648 -0.218312 -0.003192 0.082518 -0.029154 0.057914 -0.004968 0.008017 -0.065655 -0.006552 -0.290226 0.092793 0.110560 0.059213 0.041279 -0.030895 0.155507 0.172293 -0.045894 -0.100055 -0.020522 0.043018 -0.033840 -0.085815 -0.077690 -0.106218 0.063127 -0.050464 0.044051 0.290387 -0.135145 0.031994 -0.213279 -0.006112 -0.108804 -0.010967 -0.264671 -0.130538 -0.082586 0.199262 0.192589 -0.115233 0.247168 -0.033247 0.137622 0.029259 0.106668 0.057116 -0.212997 0.112668 -0.053302 0.250768 0.097795 -0.291243 0.301847 0.032468 -0.084501 0.056162 -0.220371 -0.088276 0.088496 0.266845 0.053010 -0.053145 -0.022266 0.099519 -0.066370 0.007930 0.029479 -0.226119 0.063768 0.109716 -0.119926 -0.052228 0.065565 -0.156767 0.111659 0.008918 -0.272770 0.059279 0.159047 0.082670 -0.176926 0.034888 0.050124 -0.027639 0.119465 -0.259777 -0.120410 -0.060097 -0.158208 -0.179971 -0.078479 0.161208 -0.303380 -0.092404 -0.220344 0.066142 -0.015576 -0.153970 -0.018445 0.062421 -0.117792
47 -0.234710 -0.287325 0.045846 -0.029108 0.237761 0.154286 0.102074 -0.122275 -0.067486 0.080196 -0.123955 0.463290 0.005095 0.111032 0.024247 -0.085946 -0.087627 -0.196849 0.070674 0.326558 0.056216 0.202639 -0.065633 0.007121 0.043681 0.060077 -0.373971 -0.063862 -0.116675 0.035753 0.036837 0.195427 -0.086259 0.272837 0.008607 -0.284906 0.190023 0.073163 -0.113489 0.274747 -0.258637 0.189796 0.354361 -0.205873 -0.361966 0.108279 -0.098552 -0.128641 -0.259684 -0.105052 0.010654 0.078798 0.090203 0.033290 -0.002629 -0.152314 -0.003429 -0.006153 -0.161546 -0.467093 0.085895 -0.273140 -0.162714 -0.022335 -0.057690 -0.023436 -0.158539 -0.120076 0.225813 0.056939 -0.167648 0.015653 0.055796 -0.184639 0.174941 -0.056086 0.125565 0.097592 -0.139339 -0.050613 0.023269 -0.237456 0.244901 -0.160135 0.109224 0.214945 0.281292 0.046527 -0.052775 0.149494 0.061276 0.077096 -0.325316 0.021933 -0.233009 0.275242 -0.283361 -0.059952 0.208840 -0.157611 -0.108366 -0.002147 -0.178619 -0.273962 -0.001696 0.312287 0.099163 0.136846 -0.178738 0.106740 -0.136372 -0.120302 -0.165395 -0.021274 -0.071703 0.057183 0.010031 -0.125427 -0.029805 -0.092527 0.102333 -0.295144 0.060957 0.116777 0.043349 -0.098729 -0.000242 -0.140621
16 -0.145490 0.134547 0.085531 -0.012844 0.144467 0.249359 0.163485 0.220291 0.147800 -0.019308 0.226031 0.146242 -0.025040 0.139369 -0.101831 -0.147965 -0.273112 -0.363840 -0.123453 -0.041041 -0.198503 0.102346 0.038621 0.295983 0.115064 0.218413 -0.291757 0.006188 0.099377 -0.033863 0.010051 -0.108863 -0.045119 -0.184138 -0.067162 -0.394563 0.155963 0.122381 0.008783 0.036333 -0.054517 0.172068 0.237405 0.029560 -0.104092 0.007744 0.089349 -0.002780 -0.068322 -0.039252 -0.088131 -0.026920 -0.041966 0.016931 0.343447 -0.185802 0.004530 -0.178242 0.064616 -0.134425 -0.027569 -0.229256 -0.126123 -0.178230 0.290944 0.254623 -0.073339 0.391130 -0.001527 0.059205 0.061087 0.091193 0.137449 -0.329099 0.143584 -0.088973 0.342844 0.068581 -0.218039 0.343384 0.133167 -0.114029 0.072969 -0.203278 -0.155086 0.140040 0.434758 0.029543 0.032183 0.017270 0.021751 -0.096006 -0.086857 0.025545 -0.330971 0.008495 0.193756 -0.189814 -0.049684 0.031961 -0.157305 0.181656 0.119367 -0.291060 0.073749 0.115523 -0.025629 -0.223681 0.077834 0.035160 -0.033709 0.267588 -0.226580 -0.080937 -0.084902 -0.067422 -0.262243 -0.009958 0.161908 -0.437906 -0.081413 -0.116474 0.047574 -0.035482 -0.214027 0.039895 0.192399 0.002076
68 -0.153596 0.147964 -0.065616 -0.004712 0.207936 0.176369 0.073766 0.130670 0.180006 -0.080019 0.301846 0.022626 -0.011627 0.043210 0.026960 -0.055631 -0.272790 -0.215672 -0.016034 0.069837 -0.083759 -0.094548 -0.046331 0.355944 0.095078 0.242791 -0.231603 -0.068382 0.017815 0.053932 0.001204 0.156748 0.005080 0.151371 0.132916 -0.244848 -0.069308 0.250583 0.113167 -0.021166 0.014886 0.089916 -0.115291 -0.004340 -0.031462 -0.004989 -0.014127 0.166977 0.036308 -0.139951 -0.132063 0.023123 -0.091971 -0.109926 0.413138 -0.155942 0.019944 -0.343560 -0.020011 -0.152861 0.174217 -0.051343 0.060506 0.122333 0.301511 0.143564 -0.203153 0.203702 0.087416 0.224125 0.006140 0.034123 0.058933 -0.219625 0.000111 -0.029806 0.267522 0.175817 -0.304461 0.438063 -0.031439 0.083466 0.007135 -0.111518 -0.160068 -0.135199 0.200350 0.063002 -0.060080 -0.038506 0.221714 -0.103750 0.151370 -0.126286 -0.267390 0.019169 0.104261 0.042319 0.064613 0.129007 -0.228275 0.052133 0.005164 -0.151402 0.144511 0.043510 0.173025 -0.271253 0.018275 -0.089572 -0.048972 0.108311 -0.424574 -0.123218 -0.141424 -0.176021 -0.260038 -0.234940 0.316778 -0.218207 -0.087599 -0.250081 0.180448 -0.013217 -0.277131 -0.016728 0.149630 -0.185485
49 -0.206462 -0.400699 -0.173110 -0.234726 0.102903 0.085490 0.181399 -0.181582 0.261226 0.133456 0.070410 0.891804 -0.085136 0.318273 0.059820 -0.714553 -0.347260 0.129183 0.052333 0.564271 0.191333 -0.305221 0.001161 -0.107346 0.360238 -0.006704 -0.676046 -0.206432 0.024660 -0.034979 0.010906 -0.036765 -0.163138 0.307832 0.048023 0.153575 0.243181 -0.150641 -0.017228 0.206877 -0.295698 0.181080 0.462487 -0.314899 -0.281916 0.346344 -0.107712 -0.159398 -0.283194 -0.262076 -0.164193 -0.297620 0.455175 -0.073874 -0.140143 -0.129639 0.312038 -0.170064 -0.379661 -0.607015 0.027764 -0.315447 0.110567 0.133335 -0.256056 -0.167765 -0.388675 -0.341559 0.515997 0.100276 -0.119120 -0.179821 0.385697 -0.552093 0.424981 -0.267704 0.202404 -0.107233 -0.017269 0.002316 -0.071925 -0.319894 -0.113189 -0.399388 0.049817 0.154457 0.800094 -0.179153 -0.374797 0.518879 0.125701 -0.019604 -0.538214 0.108111 -0.558455 0.243883 -0.453042 -0.086303 0.566262 0.183367 0.142273 -0.028760 -0.413882 -0.134751 0.238552 0.255138 0.107669 0.509952 -0.012750 0.180650 -0.059073 -0.266907 -0.040763 -0.293521 -0.582840 0.169776 0.137301 0.162858 -0.279006 0.069829 0.224993 -0.228745 -0.185367 0.086543 0.252773 -0.139533 0.192564 -0.208613
61 -0.219954 -0.448926 -0.066392 -0.194817 0.172746 0.113801 0.201613 -0.171056 0.168012 0.125709 -0.087436 0.864583 -0.030908 0.291010 0.024167 -0.550599 -0.274706 -0.007135 0.042879 0.504107 0.130551 -0.048421 -0.010893 -0.079035 0.234045 -0.024328 -0.627867 -0.167500 -0.007064 -0.022367 0.067634 0.022059 -0.165045 0.291323 -0.023951 -0.017957 0.293563 -0.131152 -0.063284 0.280748 -0.320043 0.250357 0.579128 -0.362687 -0.381620 0.291171 -0.090853 -0.235318 -0.335279 -0.210373 -0.097796 -0.148202 0.389607 0.012286 -0.168296 -0.174821 0.229776 -0.112509 -0.363658 -0.607174 0.030638 -0.429453 -0.059858 0.046868 -0.244544 -0.088865 -0.333665 -0.289852 0.427486 0.107240 -0.166604 -0.097373 0.300821 -0.451190 0.403177 -0.225944 0.216752 -0.060231 -0.079081 -0.033272 0.009111 -0.379290 0.057498 -0.417801 0.128029 0.275808 0.716998 -0.087480 -0.277978 0.463937 0.083604 0.053848 -0.581442 0.112758 -0.502393 0.351772 -0.434321 -0.135476 0.476688 0.061081 0.038031 -0.000793 -0.341214 -0.236375 0.177809 0.349884 0.132347 0.443463 -0.077788 0.236632 -0.110126 -0.258626 -0.113955 -0.244014 -0.471679 0.135936 0.145869 0.102903 -0.248589 0.005104 0.216451 -0.313177 -0.113585 0.111707 0.218353 -0.118698 0.109914 -0.217911
48 -0.239164 -0.414338 0.016256 -0.124250 0.231260 0.140797 0.163056 -0.143948 0.023196 0.119212 -0.191211 0.698080 -0.013082 0.177861 0.025764 -0.248003 -0.181204 -0.158017 0.074671 0.401508 0.111931 0.158097 -0.054604 -0.000380 0.071109 0.016408 -0.470350 -0.126333 -0.087679 0.042148 0.099823 0.188716 -0.135950 0.332892 -0.040759 -0.214343 0.289090 0.027398 -0.090316 0.327251 -0.325872 0.259329 0.484032 -0.297342 -0.421348 0.207476 -0.085359 -0.184344 -0.320089 -0.166209 -0.029758 0.025777 0.256298 0.037351 -0.097130 -0.187631 0.083032 -0.084819 -0.322029 -0.530339 0.133165 -0.415260 -0.161270 0.023685 -0.196477 -0.032760 -0.242724 -0.195416 0.286977 0.081282 -0.182084 -0.036924 0.145224 -0.247881 0.300332 -0.121735 0.158769 0.021467 -0.137455 -0.071082 0.046121 -0.333591 0.213660 -0.327223 0.139057 0.268438 0.439708 0.050843 -0.131535 0.279966 0.093142 0.101904 -0.444545 0.058718 -0.355167 0.376751 -0.363984 -0.086761 0.319241 -0.041861 -0.127350 0.010224 -0.257389 -0.215176 0.112314 0.370098 0.195739 0.293104 -0.167177 0.161774 -0.146384 -0.235147 -0.235769 -0.132345 -0.290190 0.076282 0.062587 -0.018780 -0.144726 -0.010230 0.163648 -0.400813 0.036297 0.111223 0.118182 -0.136244 0.024884 -0.208543
62 -0.129855 0.073866 -0.046847 -0.033425 0.179724 0.140386 0.092772 0.137855 0.120539 -0.039699 0.175981 0.033757 -0.023439 0.051443 0.001832 -0.022227 -0.201139 -0.205877 -0.036839 -0.003495 -0.025045 -0.021203 -0.035525 0.343697 0.053302 0.173720 -0.163544 -0.084371 -0.032206 0.083125 0.015130 0.169225 -0.013062 0.161697 0.096506 -0.234785 -0.007129 0.232424 0.063846 0.003326 -0.034795 0.132247 -0.072190 -0.029106 -0.088450 0.005544 0.016704 0.178627 0.064866 -0.117474 -0.076032 0.012907 -0.025401 -0.062396 0.351076 -0.188148 0.006826 -0.316334 -0.098456 -0.115774 0.224126 -0.077208 0.027764 0.058266 0.148148 0.166801 -0.154966 0.204395 0.036907 0.168646 -0.044756 -0.004398 0.078961 -0.144313 -0.004011 -0.056344 0.244851 0.110892 -0.251101 0.286979 0.018823 0.042298 0.082223 -0.112681 -0.101601 -0.084366 0.167709 0.130661 0.001090 -0.006560 0.166354 -0.090554 0.108148 -0.138875 -0.271521 0.088588 0.077460 0.053096 0.073128 0.160911 -0.261606 0.087966 0.065798 -0.063154 0.188325 0.065227 0.232981 -0.191596 0.000193 -0.048788 -0.090441 0.031163 -0.437883 -0.125875 -0.170650 -0.162490 -0.223125 -0.185058 0.284190 -0.144071 -0.035334 -0.242929 0.183788 -0.047914 -0.251761 -0.020877 0.129724 -0.127592
37 -0.145814 -0.132468 0.109360 -0.091653 0.243961 0.190854 0.167607 0.105290 0.068621 0.051189 -0.129058 0.343769 -0.014507 0.039984 -0.081444 -0.079023 -0.186334 -0.312424 -0.041712 0.004919 -0.047293 0.241234 -0.022597 0.232710 0.001893 0.049860 -0.167063 -0.022513 0.076408 0.032409 0.120210 0.076839 -0.068067 0.049191 -0.088438 -0.332731 0.214241 0.071363 0.049098 0.146281 -0.093222 0.311455 0.305056 -0.193300 -0.321929 0.004777 -0.039535 -0.081545 -0.087379 -0.066943 -0.011650 0.013973 0.160052 0.180103 0.111201 -0.129251 0.104105 -0.163525 -0.173106 -0.166414 0.044521 -0.402791 -0.232270 -0.141370 -0.098893 0.171495 -0.039763 0.150319 -0.051640 0.117129 -0.054666 0.022934 0.122319 -0.090300 0.161585 -0.146827 0.179246 0.012138 -0.201130 0.022437 0.004368 -0.236152 0.145060 -0.316719 0.150533 0.185854 0.281775 0.138890 0.026813 0.079763 0.047232 -0.009194 -0.170193 -0.009288 -0.251310 0.234967 -0.102493 -0.169521 0.022029 0.032004 -0.167358 0.093967 0.061875 -0.223938 0.182623 0.253856 0.214850 0.063510 -0.106015 0.131812 -0.106837 -0.120363 -0.253528 -0.130962 -0.198368 -0.071663 0.017941 -0.068009 0.068069 -0.181667 -0.004322 -0.278321 0.037856 -0.057627 -0.020658 -0.064833 0.042620 -0.127102
23 -0.319915 0.063203 -0.049932 0.074244 0.185395 0.226534 -0.039844 -0.017685 -0.020662 0.030585 0.294798 0.205251 -0.036774 0.035562 0.066829 -0.018414 -0.215382 -0.201705 0.143189 0.389114 -0.019742 -0.133577 -0.084726 0.102876 0.139565 0.301096 -0.439796 -0.025976 -0.129159 0.040345 -0.110700 0.241708 -0.104634 0.249524 0.098759 -0.370194 0.096970 0.298135 -0.036972 0.218812 -0.177564 -0.089576 0.038983 0.155898 -0.122597 0.097831 -0.130999 0.131210 -0.178336 -0.136358 -0.104019 0.070992 -0.086244 -0.249544 0.280702 -0.126747 -0.166213 -0.053438 0.040291 -0.468534 0.159528 0.037358 0.057100 0.176340 0.399012 -0.060286 -0.208390 0.005667 0.334164 -0.000951 0.017141 0.063985 0.007528 -0.288025 0.145425 0.139974 0.109828 0.216007 -0.128329 0.297958 0.077987 -0.054166 0.058205 0.031220 -0.268815 -0.022480 0.210833 -0.057255 -0.021830 -0.033867 0.220216 0.002165 -0.084732 -0.041146 -0.198237 -0.058015 -0.006139 -0.008052 0.111919 -0.147037 -0.162752 -0.043270 -0.243428 -0.193911 -0.119329 0.033217 -0.080085 -0.194132 -0.068051 -0.219191 -0.052420 0.219313 -0.177107 0.113144 0.026145 0.068613 -0.368029 -0.174333 0.073862 -0.310417 -0.015735 -0.197129 0.205619 0.150336 -0.139896 -0.114575 0.182714 -0.102677
19 -0.229267 0.047622 -0.199716 -0.058978 0.161227 0.210771 -0.026648 0.172858 0.390014 -0.045297 0.374221 0.341759 -0.202799 -0.032674 0.133324 -0.128446 -0.453618 -0.167523 0.075688 0.298198 -0.003152 -0.328218 -0.036276 0.233312 0.154497 0.351778 -0.276714 -0.037096 0.062458 -0.032816 0.035049 0.180630 -0.001411 0.017791 0.105141 -0.152592 0.181666 0.367778 0.168605 0.092016 -0.135706 -0.057695 -0.130518 0.239038 0.053810 0.191400 -0.026130 0.134957 -0.135093 -0.278160 -0.326687 0.083458 -0.003758 -0.293590 0.375215 0.016837 -0.002477 -0.301678 -0.081439 -0.179918 0.164828 -0.186726 0.102448 0.411271 0.243230 -0.076203 -0.244919 0.043405 0.112814 0.038610 0.269815 0.120248 0.004815 -0.221845 0.294957 0.198175 0.002148 0.133529 -0.284755 0.396198 -0.084441 0.000794 -0.301442 -0.241568 -0.473510 -0.166006 0.187838 -0.109393 -0.215664 -0.195329 0.383373 -0.073026 0.417443 0.121164 -0.123691 -0.121178 0.189251 -0.010012 -0.119963 0.154884 -0.190569 0.061191 -0.482430 0.094066 0.002344 -0.048847 0.089494 -0.150391 -0.016365 -0.315871 0.155829 0.158351 -0.219152 -0.111564 -0.115153 -0.035057 -0.454166 0.038778 -0.025139 -0.153189 -0.166607 -0.394297 0.119644 0.000197 -0.070557 -0.240748 -0.018142 -0.208706
65 -0.102686 0.140574 0.015208 -0.038803 0.145066 0.191315 0.133448 0.178999 0.151873 -0.036222 0.236494 0.017260 -0.016956 0.077941 -0.051884 -0.048124 -0.238540 -0.288721 -0.070070 -0.061893 -0.134642 0.030298 -0.022131 0.382340 0.071035 0.202366 -0.192944 -0.042680 0.049238 0.052775 0.034595 0.048980 -0.017408 -0.001618 0.027099 -0.314880 -0.007155 0.209695 0.075717 -0.031683 0.011556 0.155492 0.001425 -0.009156 -0.054612 -0.010684 0.058297 0.113502 0.035655 -0.082926 -0.097786 -0.007371 -0.069578 -0.041010 0.370011 -0.186564 0.018926 -0.321452 0.000283 -0.079442 0.109640 -0.132524 -0.016418 -0.046946 0.249318 0.237132 -0.111347 0.336832 -0.015928 0.168104 -0.003757 0.045553 0.091596 -0.207216 0.000749 -0.096607 0.308600 0.103665 -0.264382 0.367191 0.061786 0.018207 0.065369 -0.151988 -0.138684 -0.033263 0.261666 0.100627 -0.004456 -0.025053 0.108797 -0.101273 0.067802 -0.109337 -0.301179 0.038235 0.157818 -0.027921 -0.005515 0.128147 -0.238407 0.130890 0.143797 -0.148003 0.183871 0.062076 0.140215 -0.267112 0.062082 -0.015578 -0.055900 0.142925 -0.394987 -0.125411 -0.159391 -0.161098 -0.253237 -0.138712 0.271313 -0.239340 -0.074663 -0.175266 0.138486 -0.049557 -0.281349 0.031465 0.157502 -0.088653
38 -0.046261 0.093118 0.078760 -0.044448 0.059601 0.254356 0.215986 0.269253 0.251839 -0.079564 0.298968 0.146576 0.024364 0.251114 -0.169725 -0.201826 -0.322618 -0.340024 -0.156351 -0.104261 -0.261288 0.142963 0.079677 0.414138 0.110458 0.231923 -0.351290 -0.045906 0.115135 -0.051231 0.032282 -0.240060 -0.042016 -0.286391 -0.063516 -0.378533 0.080075 0.067870 -0.019942 -0.061809 -0.061653 0.196624 0.300193 0.013581 -0.054491 0.065909 0.228962 -0.041536 -0.065885 -0.097696 -0.151531 -0.031040 -0.116067 0.005358 0.355229 -0.308456 0.056025 -0.286918 0.042742 -0.066810 -0.064791 -0.280979 -0.091950 -0.262798 0.358920 0.383480 -0.125481 0.503585 -0.035145 0.123779 -0.014738 0.116566 0.148383 -0.441236 0.093309 -0.123696 0.525758 0.057677 -0.314947 0.493277 0.169198 -0.107399 0.077472 -0.253642 -0.286214 0.164265 0.551980 0.002039 -0.078007 0.025982 0.041913 -0.160284 -0.104177 0.032708 -0.474642 0.003458 0.274139 -0.198363 -0.032594 0.149767 -0.205746 0.239145 0.187603 -0.360538 0.103147 0.147066 -0.001005 -0.316585 0.175717 0.145285 -0.037669 0.368013 -0.295475 -0.184474 -0.120897 -0.197396 -0.317244 0.014676 0.154605 -0.430338 -0.072664 -0.135908 0.051362 -0.071805 -0.315324 0.114520 0.164849 -0.001811
21 -0.255957 0.151763 -0.116331 -0.056218 0.061341 0.184856 -0.032561 0.143326 0.162445 0.066777 0.374282 0.206083 -0.099333 -0.010806 0.055070 -0.046597 -0.373984 -0.196354 0.123967 0.214123 -0.020149 -0.278583 -0.031197 0.269617 0.129706 0.343092 -0.277381 -0.014235 -0.000534 0.068454 -0.010001 0.184827 -0.124309 0.086991 0.053895 -0.263929 0.142033 0.413045 0.135764 0.096583 -0.116368 -0.072637 -0.145728 0.253174 -0.006461 0.150668 -0.036885 0.257821 -0.069784 -0.177288 -0.202022 0.011118 -0.015072 -0.322374 0.373897 -0.108841 -0.084633 -0.269900 -0.067793 -0.189977 0.224175 -0.038265 0.131164 0.278620 0.355963 0.026107 -0.218391 0.172693 0.169205 0.018483 0.202258 0.045452 0.046234 -0.256469 0.202406 0.162784 0.128035 0.126503 -0.143478 0.453020 0.072150 -0.011009 -0.184604 -0.109968 -0.448702 -0.127569 0.211564 -0.056775 -0.009787 -0.165034 0.292062 -0.059960 0.145988 -0.010243 -0.224730 -0.146741 0.199902 -0.006131 -0.016055 0.099815 -0.286973 0.040079 -0.242237 0.109037 0.075242 -0.102304 0.047067 -0.249431 0.039045 -0.283573 0.058874 0.279355 -0.285885 0.010361 -0.144743 0.031514 -0.541497 -0.015080 0.012879 -0.212103 -0.098986 -0.272885 0.231991 0.011701 -0.173197 -0.115857 0.200898 -0.103330
44 -0.178605 0.054634 -0.060885 0.004089 0.216958 0.190467 0.026319 0.063111 0.202550 -0.044400 0.233359 0.204491 -0.091962 -0.006055 0.066115 -0.101541 -0.258801 -0.202436 0.021968 0.219262 -0.077226 -0.089594 -0.069551 0.141282 0.128059 0.206004 -0.253301 -0.008953 0.074703 -0.033221 0.009468 0.099628 0.004210 0.057941 0.061056 -0.215320 0.063129 0.174367 0.092934 0.087310 -0.046395 0.049842 0.018352 0.026019 -0.052927 0.039444 -0.094766 -0.002194 -0.115712 -0.145858 -0.161741 0.057052 -0.025983 -0.081890 0.256475 0.002776 0.034869 -0.153749 0.030988 -0.232786 0.021768 -0.146120 -0.030559 0.149337 0.198948 -0.018527 -0.143001 0.037179 0.108351 0.106905 0.108642 0.089131 0.025368 -0.173011 0.142023 0.033454 0.042906 0.131883 -0.210527 0.251691 -0.080356 -0.027853 -0.075291 -0.162903 -0.128176 -0.067943 0.194697 -0.041065 -0.130007 -0.044827 0.184267 -0.031332 0.123200 0.032842 -0.118670 -0.002280 0.028196 -0.047787 -0.027223 -0.013671 -0.063212 0.025085 -0.209802 -0.176519 0.000154 0.082199 0.026481 -0.095241 -0.054057 -0.120201 0.047686 0.051247 -0.143188 -0.063342 -0.059675 -0.026662 -0.160826 -0.113805 0.107958 -0.218103 -0.095461 -0.230045 0.030292 0.058181 -0.057056 -0.125750 0.033022 -0.185409
18 -0.357684 0.193456 -0.168910 0.092204 0.467307 0.174538 0.036278 -0.013863 0.178294 0.019674 0.483981 0.062060 -0.132565 0.003635 0.167285 -0.346727 -0.203142 -0.310913 -0.048282 0.381231 0.053116 -0.301574 -0.076559 0.057721 0.419077 0.273765 -0.516403 -0.152287 -0.014977 0.024171 -0.213472 0.167623 0.027432 0.322718 0.177696 -0.415174 -0.083753 0.237449 -0.060479 0.120465 -0.025913 0.100823 -0.102111 0.000210 -0.129563 0.033105 -0.221427 0.089759 0.126949 -0.125033 -0.069735 -0.165070 -0.025000 -0.173532 0.473998 -0.045376 0.047563 -0.118906 0.205594 -0.575476 0.147482 0.228708 0.113353 0.192429 0.401838 -0.074904 -0.156920 0.005484 0.421543 0.147232 -0.034746 -0.029589 0.187924 -0.400264 0.043826 -0.148276 0.128609 0.324496 -0.090394 0.225982 -0.177947 0.159330 0.114881 0.060684 0.008318 -0.238283 0.463714 -0.086802 -0.030620 0.229643 0.123196 -0.097991 0.050288 -0.235403 -0.335156 -0.012846 -0.135462 -0.001066 0.314621 -0.173285 0.034497 0.005010 -0.015938 -0.349717 0.020007 0.039561 -0.117350 -0.137919 -0.185286 -0.280564 -0.081461 0.058096 -0.178203 -0.026771 -0.174025 0.158666 -0.040199 -0.385604 0.513774 -0.411423 0.003324 -0.047098 -0.002302 0.106654 -0.283100 -0.051950 0.348122 -0.113985
39 -0.400607 0.254199 -0.081407 0.071252 0.354368 0.225929 0.037432 0.120878 0.083929 0.067390 0.430100 0.086547 -0.160029 0.002187 0.066282 -0.224686 -0.236843 -0.371086 -0.036370 0.263111 -0.019141 -0.259874 -0.033483 0.139260 0.321870 0.320259 -0.469254 -0.043018 -0.029475 0.042989 -0.155182 0.131045 -0.048840 0.115530 0.043843 -0.480785 0.142189 0.351220 -0.025346 0.163131 -0.088158 0.042327 -0.026739 0.179846 -0.115179 0.056231 -0.153449 0.179310 0.058557 -0.061493 -0.079769 -0.123835 -0.003627 -0.238245 0.476149 -0.077507 -0.089412 -0.065564 0.160735 -0.422448 0.172593 0.147630 0.055267 0.131312 0.382143 0.014057 -0.099878 0.208813 0.313590 -0.011432 0.111409 0.014375 0.158996 -0.346904 0.127481 -0.010926 0.106683 0.213078 -0.024049 0.247160 0.068228 0.052403 0.054116 0.037327 -0.143188 -0.133784 0.438428 -0.031495 0.142464 0.107363 0.086340 -0.061741 0.047443 -0.126133 -0.281262 -0.089865 0.074492 -0.061386 0.112023 -0.105586 -0.112437 0.115160 -0.036908 -0.133977 0.008274 -0.032861 -0.129376 -0.147335 -0.115931 -0.294129 -0.042204 0.232106 -0.151885 0.068194 -0.137032 0.204806 -0.268994 -0.174691 0.294633 -0.469163 -0.027848 -0.033802 0.081970 0.088365 -0.246118 -0.039908 0.365634 0.029373
1 -0.137384 -0.093731 0.105755 -0.141084 0.248704 0.184115 0.207516 0.215035 0.110977 0.062051 -0.147277 0.305482 -0.059251 0.017453 -0.116232 -0.099365 -0.215207 -0.355584 -0.095785 -0.121271 -0.023062 0.208280 -0.007618 0.336120 0.005772 0.040487 -0.089945 -0.027154 0.111407 0.054348 0.135059 0.073868 -0.063882 -0.001628 -0.134897 -0.350303 0.256380 0.112256 0.102833 0.097610 -0.069038 0.355653 0.254560 -0.158976 -0.311984 -0.008135 -0.010381 -0.009740 0.012424 -0.052027 -0.014242 -0.038830 0.231900 0.197200 0.172380 -0.145757 0.126947 -0.247546 -0.235214 -0.053824 0.113182 -0.436931 -0.224257 -0.167533 -0.178261 0.246726 0.000638 0.264426 -0.152860 0.107530 -0.022806 -0.017467 0.180298 -0.052209 0.160421 -0.190299 0.186556 -0.047928 -0.187135 -0.012039 0.026579 -0.233022 0.116108 -0.375458 0.152124 0.153648 0.284106 0.195544 0.088783 0.081131 0.050867 -0.041215 -0.077069 -0.049493 -0.289886 0.232505 -0.030917 -0.177245 -0.021579 0.160817 -0.241427 0.173300 0.161993 -0.098250 0.291814 0.207662 0.304904 0.076368 -0.083861 0.110253 -0.120113 -0.152871 -0.334217 -0.173473 -0.314131 -0.101503 -0.004315 -0.006378 0.103966 -0.168154 -0.026499 -0.262558 0.032694 -0.136127 -0.052987 -0.065588 0.077290 -0.077141
60 -0.140980 -0.134116 0.019805 -0.196806 0.266661 0.150839 0.201592 0.161228 0.087609 0.116351 -0.184759 0.295698 -0.124704 -0.025891 -0.034861 -0.034317 -0.208213 -0.335474 -0.067410 -0.115592 0.106818 0.143612 -0.079893 0.386750 -0.023201 0.022342 -0.030401 -0.105098 0.029431 0.163850 0.158968 0.276289 -0.061735 0.223804 -0.057556 -0.307822 0.216516 0.243651 0.121996 0.100887 -0.084458 0.393188 0.065443 -0.200944 -0.325570 0.034860 -0.039793 0.120891 0.079676 -0.110149 0.005112 -0.059680 0.284685 0.118505 0.216720 -0.156853 0.132145 -0.395893 -0.357159 -0.087117 0.334303 -0.387792 -0.124977 -0.043277 -0.292387 0.201619 -0.049044 0.198969 -0.135115 0.154220 -0.090123 -0.095200 0.174947 0.047984 0.109437 -0.213529 0.133794 -0.028482 -0.210149 -0.078212 -0.006552 -0.148495 0.162649 -0.357300 0.186864 0.028398 0.178089 0.290516 0.080890 0.088668 0.129121 -0.031351 0.032185 -0.178102 -0.314466 0.333721 -0.101051 -0.011758 0.049127 0.243588 -0.348733 0.160206 0.157297 0.111139 0.431066 0.171924 0.481022 0.106218 -0.128759 0.023674 -0.150913 -0.319279 -0.547250 -0.224796 -0.444077 -0.111184 -0.026170 -0.085709 0.183978 0.042547 0.009772 -0.376272 0.127588 -0.149975 -0.081574 -0.123001 0.068660 -0.133689
15 -0.144379 0.098900 -0.105654 -0.133902 0.212472 0.122272 0.130369 0.186501 0.202533 0.038838 0.175412 0.041218 -0.153842 -0.022840 0.044449 -0.089927 -0.255743 -0.262656 -0.081730 -0.089187 0.078848 -0.138596 -0.068505 0.412436 0.095005 0.148149 -0.081595 -0.136916 0.016486 0.142659 0.044921 0.241428 0.001927 0.191647 0.074701 -0.223485 0.029317 0.328768 0.139690 -0.033215 0.005946 0.207225 -0.223474 -0.012182 -0.062211 0.042878 -0.011696 0.269317 0.191703 -0.139619 -0.084131 -0.102588 0.115884 -0.097827 0.406594 -0.134815 0.074473 -0.460150 -0.177913 -0.051080 0.363856 -0.078945 0.096811 0.122971 -0.004234 0.159654 -0.115917 0.246736 -0.030292 0.175284 0.004908 -0.086933 0.159358 -0.066415 0.004273 -0.147538 0.151315 0.065644 -0.208307 0.163398 -0.026874 0.090238 0.031345 -0.188772 -0.055093 -0.215115 0.170149 0.182313 0.029978 0.038292 0.183246 -0.103070 0.275106 -0.233631 -0.305879 0.121086 0.077613 0.111184 0.052577 0.299406 -0.303823 0.154463 0.127878 0.183880 0.376813 -0.021970 0.358754 -0.099690 -0.025090 -0.156501 -0.065011 -0.111030 -0.542647 -0.213298 -0.407391 -0.111515 -0.196454 -0.133473 0.331675 -0.008185 -0.032240 -0.261274 0.157745 -0.119758 -0.256654 -0.071689 0.167723 -0.098268
43 -0.194371 0.143902 -0.047780 0.019276 0.240070 0.193809 0.054392 0.120820 0.181585 -0.075396 0.284828 0.071869 -0.046659 0.013659 0.043261 -0.069618 -0.266763 -0.235815 -0.019238 0.120866 -0.087824 -0.094659 -0.046183 0.261827 0.113588 0.247374 -0.237442 -0.032191 0.039424 0.005960 -0.011594 0.146791 0.016480 0.106958 0.106064 -0.265751 0.006238 0.221063 0.102505 0.040744 -0.001305 0.064732 -0.055755 0.025566 -0.053256 -0.011919 -0.055279 0.100977 -0.013322 -0.126859 -0.129930 0.040985 -0.064940 -0.084935 0.378086 -0.083232 0.012053 -0.242690 0.017644 -0.198275 0.099937 -0.073344 -0.001445 0.129455 0.277925 0.072874 -0.158223 0.142452 0.089035 0.163519 0.068372 0.066520 0.052266 -0.201102 0.072390 -0.006199 0.164049 0.165787 -0.266797 0.355705 -0.046048 0.038478 -0.012590 -0.120285 -0.136995 -0.102368 0.196188 0.030398 -0.059565 -0.044641 0.197608 -0.075942 0.150395 -0.055209 -0.188220 -0.006127 0.080384 -0.015271 0.015592 0.051143 -0.145919 0.040248 -0.069684 -0.188409 0.070108 0.054675 0.098810 -0.210156 -0.017333 -0.122147 -0.014211 0.097112 -0.298107 -0.078989 -0.091416 -0.115131 -0.228871 -0.193292 0.267647 -0.275893 -0.097340 -0.234388 0.115702 0.010713 -0.197537 -0.066312 0.125978 -0.176162
46 -0.346088 0.018798 0.010645 0.096518 0.249157 0.234029 -0.025279 -0.079358 -0.129838 0.055400 0.190719 0.200780 -0.036018 0.013999 0.065419 0.033080 -0.134699 -0.255378 0.143051 0.390027 -0.009519 -0.023830 -0.117445 0.060352 0.105609 0.254221 -0.417873 -0.011214 -0.156489 0.052505 -0.111008 0.297961 -0.102663 0.316594 0.090805 -0.435241 0.096049 0.286563 -0.060690 0.264701 -0.184473 -0.038455 0.086123 0.084823 -0.213232 0.057268 -0.180780 0.086506 -0.192361 -0.100275 -0.035990 0.095447 -0.089781 -0.171663 0.241964 -0.102141 -0.178268 0.013539 0.046833 -0.524070 0.157517 0.024692 -0.021586 0.111889 0.329039 -0.076260 -0.163762 -0.036079 0.324373 -0.014608 -0.046604 0.053039 -0.015644 -0.219679 0.116714 0.106838 0.067813 0.226148 -0.118398 0.169032 0.070029 -0.079521 0.160488 0.058566 -0.123647 0.008762 0.165518 -0.002053 0.032159 0.000619 0.171079 0.039568 -0.141183 -0.066796 -0.154300 0.023979 -0.100673 0.000732 0.120458 -0.249021 -0.151411 -0.054301 -0.200923 -0.252351 -0.131483 0.101279 -0.064320 -0.139342 -0.142969 -0.185915 -0.098010 0.141109 -0.167824 0.158003 0.061040 0.090711 -0.268810 -0.246957 0.106062 -0.303654 -0.001542 -0.203343 0.200574 0.182319 -0.110711 -0.115297 0.160421 -0.106275
22 -0.359755 0.171425 -0.048842 0.025968 0.165683 0.223889 -0.035943 0.081138 -0.002409 0.102989 0.367946 0.178221 -0.081463 -0.006534 0.057195 -0.032380 -0.301977 -0.304917 0.135341 0.302754 -0.015288 -0.218293 -0.056034 0.196198 0.160039 0.369553 -0.400713 -0.008959 -0.071031 0.091552 -0.097561 0.237759 -0.148977 0.180778 0.042921 -0.442561 0.167704 0.428896 0.030200 0.193839 -0.142378 -0.086513 -0.061622 0.261828 -0.099328 0.116890 -0.127839 0.246355 -0.090141 -0.112120 -0.119823 -0.006049 -0.045527 -0.317334 0.388836 -0.129725 -0.173817 -0.118389 0.035433 -0.381937 0.241645 0.058665 0.091066 0.201044 0.423644 0.004282 -0.181838 0.164754 0.286640 -0.028488 0.119974 0.042818 0.052186 -0.296029 0.180722 0.145780 0.120697 0.200814 -0.070872 0.353785 0.126464 -0.038038 -0.006383 0.005247 -0.343709 -0.076158 0.267562 -0.041215 0.106781 -0.080883 0.214355 -0.021859 -0.016635 -0.086379 -0.233802 -0.118313 0.109493 -0.027822 0.060835 -0.082928 -0.257285 0.024672 -0.167955 -0.019012 -0.014764 -0.063753 -0.061092 -0.238925 -0.033665 -0.308909 -0.019541 0.302597 -0.233419 0.131755 -0.076435 0.128540 -0.499314 -0.108090 0.079943 -0.353826 -0.045925 -0.190742 0.249678 0.089247 -0.212526 -0.095895 0.298026 -0.030945
42 -0.201998 0.117456 -0.125089 0.015328 0.270504 0.127894 0.035864 0.021398 0.163120 -0.022227 0.310057 0.051228 -0.094937 0.005237 0.115059 -0.154339 -0.197264 -0.185151 -0.001481 0.212032 0.019094 -0.202201 -0.086368 0.161229 0.207010 0.188859 -0.287488 -0.101161 -0.009729 0.046814 -0.072385 0.187716 0.028780 0.247930 0.154243 -0.213933 -0.071788 0.209191 0.038231 0.034916 -0.004011 0.059777 -0.142595 -0.008663 -0.037023 0.024632 -0.114305 0.116291 0.048555 -0.135727 -0.096446 -0.052269 -0.028142 -0.139035 0.349789 -0.049706 0.042624 -0.217868 0.036685 -0.311260 0.169433 0.072919 0.099937 0.189091 0.228992 -0.023551 -0.171277 0.027290 0.202768 0.157316 -0.010826 -0.016134 0.086241 -0.198757 0.011503 -0.070100 0.095324 0.199155 -0.170075 0.230984 -0.114668 0.117535 0.025878 -0.025168 -0.045278 -0.199934 0.214826 -0.000997 -0.082003 0.077161 0.169742 -0.066048 0.132118 -0.151568 -0.213768 0.022297 -0.045321 0.070189 0.154867 0.009184 -0.074894 0.011543 -0.062756 -0.142458 0.091642 0.026919 0.070298 -0.120681 -0.075028 -0.170100 -0.027427 -0.005422 -0.263363 -0.082316 -0.162121 -0.011585 -0.107014 -0.252059 0.321247 -0.163843 -0.027204 -0.154049 0.065460 0.051587 -0.196662 -0.073811 0.164327 -0.150706
41 -0.307567 0.153258 -0.117924 0.070032 0.367624 0.181591 0.025779 0.004441 0.123686 -0.009448 0.375072 0.054537 -0.098722 -0.013189 0.133614 -0.153904 -0.206852 -0.270832 0.011880 0.299638 0.015044 -0.212937 -0.099282 0.141374 0.258401 0.263900 -0.390216 -0.103505 -0.041929 0.048864 -0.132657 0.242718 0.000949 0.310346 0.166920 -0.358732 -0.057228 0.277687 -0.000725 0.107979 -0.029292 0.057043 -0.124704 0.016210 -0.108456 0.018791 -0.170830 0.139134 0.053666 -0.133191 -0.081113 -0.046195 -0.062288 -0.173496 0.433364 -0.073905 -0.006632 -0.165784 0.107787 -0.449742 0.186390 0.133620 0.086556 0.201820 0.346832 -0.037943 -0.174937 0.028968 0.298595 0.148310 -0.010364 -0.002945 0.095749 -0.265765 0.027036 -0.058988 0.116482 0.273987 -0.161610 0.264768 -0.108537 0.114991 0.082949 0.022459 -0.050527 -0.208966 0.269892 -0.010561 -0.027328 0.082740 0.179430 -0.064900 0.095582 -0.188305 -0.247117 0.003612 -0.067701 0.048125 0.196808 -0.097719 -0.079754 -0.016406 -0.052082 -0.244258 0.035753 0.031432 -0.002464 -0.180914 -0.140354 -0.244383 -0.068825 0.055685 -0.265020 -0.013587 -0.121955 0.045212 -0.145274 -0.342920 0.408544 -0.301611 -0.034463 -0.145026 0.101145 0.095033 -0.254266 -0.072784 0.250901 -0.154163
17 -0.292146 0.232515 0.033428 0.014393 0.174887 0.239313 0.097599 0.207983 0.078825 0.090526 0.348537 0.146775 -0.095117 0.074809 -0.053966 -0.183820 -0.275862 -0.409329 -0.062381 0.100540 -0.121540 -0.111282 0.014199 0.223824 0.234099 0.291523 -0.397325 0.007762 0.051245 0.030338 -0.072719 -0.025200 -0.096834 -0.101308 -0.085408 -0.483247 0.232460 0.279759 -0.005292 0.127935 -0.088311 0.064843 0.124184 0.193042 -0.105413 0.053114 -0.025627 0.121032 -0.026487 -0.021370 -0.077890 -0.121059 0.011377 -0.164383 0.405975 -0.147536 -0.087080 -0.093265 0.115860 -0.266818 0.088427 -0.043612 -0.015267 -0.053324 0.360509 0.162584 -0.070773 0.372812 0.157318 -0.042523 0.127851 0.043089 0.171281 -0.363675 0.179532 -0.021092 0.214926 0.103990 -0.036675 0.290034 0.190046 -0.075569 0.045570 -0.067875 -0.215045 0.029853 0.484556 -0.021177 0.170765 0.049492 0.018200 -0.066805 -0.089639 -0.032370 -0.329565 -0.093297 0.191612 -0.160466 0.005753 -0.026944 -0.167154 0.176167 0.059235 -0.121870 0.041407 -0.005510 -0.130459 -0.186663 0.017521 -0.145520 -0.019276 0.331535 -0.143039 0.043036 -0.136764 0.144265 -0.355064 0.004100 0.138492 -0.487884 -0.040935 -0.026646 0.081010 0.027136 -0.240377 0.006393 0.349656 0.103721
20 -0.138975 -0.069896 -0.203909 -0.015715 0.110625 0.114076 0.029587 0.227237 0.305200 -0.201705 0.226814 0.218821 -0.022089 0.126941 0.041990 -0.090329 -0.329917 0.054876 -0.011939 0.128707 0.046582 -0.235650 0.073626 0.331967 0.038762 0.248869 -0.200976 -0.114919 -0.090197 -0.024829 0.010168 0.173819 0.031514 0.128530 0.206424 0.041232 0.125531 0.214088 0.074830 0.003097 -0.184814 -0.042081 -0.051669 0.112845 0.000336 0.141496 0.138566 0.220944 -0.033031 -0.284550 -0.249893 0.118840 -0.005635 -0.202761 0.321317 -0.217168 -0.011648 -0.384405 -0.299433 -0.065031 0.273108 -0.148217 0.130042 0.318202 0.130041 0.092419 -0.353462 0.042963 0.087623 0.110258 0.050130 0.053560 0.012012 -0.242157 0.202881 0.186467 0.230729 0.042357 -0.382812 0.447086 0.009911 0.003732 -0.173089 -0.195767 -0.419301 -0.068039 0.133386 0.016147 -0.198738 -0.091622 0.382303 -0.146528 0.328351 0.069659 -0.218999 -0.011536 0.184266 0.072782 0.047956 0.394543 -0.295280 0.045624 -0.355862 0.095093 0.043734 0.024573 0.312985 -0.143578 0.049227 -0.095623 -0.001039 0.095347 -0.417039 -0.200824 -0.114923 -0.297184 -0.404294 0.009423 0.055913 -0.082277 -0.063391 -0.420192 0.251121 -0.083187 -0.147661 -0.130735 -0.044727 -0.199916
10 -0.127754 -0.108608 -0.241634 -0.062386 0.111846 0.101641 0.022098 0.209867 0.359576 -0.162363 0.207453 0.286131 -0.093184 0.093160 0.076537 -0.121507 -0.340091 0.068430 -0.004459 0.146801 0.102720 -0.276512 0.051299 0.300866 0.050156 0.216189 -0.168833 -0.132909 -0.066571 -0.020925 0.031906 0.181920 0.033538 0.136168 0.183942 0.077873 0.154684 0.222283 0.091814 0.010457 -0.188441 -0.023722 -0.076026 0.118414 0.013014 0.188525 0.125120 0.205026 -0.025279 -0.308978 -0.263041 0.092374 0.064011 -0.213226 0.280418 -0.156395 0.030702 -0.401412 -0.332143 -0.056063 0.288252 -0.178413 0.138343 0.367715 0.036143 0.039636 -0.335746 -0.014756 0.071476 0.081695 0.084266 0.028296 0.033800 -0.198520 0.240888 0.169003 0.145243 0.014999 -0.355122 0.354207 -0.040942 -0.001979 -0.219436 -0.230830 -0.412253 -0.102631 0.124231 -0.004309 -0.229949 -0.086194 0.394019 -0.133789 0.384780 0.083003 -0.195039 0.002187 0.148567 0.073521 0.033029 0.414689 -0.271856 0.052983 -0.396196 0.187403 0.078635 -0.000040 0.338409 -0.063417 0.019837 -0.137797 0.042179 0.012468 -0.384543 -0.230514 -0.175961 -0.245545 -0.368007 0.061043 0.003986 0.002557 -0.058951 -0.438329 0.205488 -0.095661 -0.084398 -0.181317 -0.083420 -0.203983
66 -0.098519 0.103724 -0.044532 -0.021761 0.135268 0.149667 0.091227 0.146374 0.152676 -0.073979 0.246296 0.015214 0.015416 0.090662 -0.013123 -0.040822 -0.239298 -0.173049 -0.025195 0.015879 -0.084053 -0.049235 -0.021530 0.366526 0.068928 0.202980 -0.203236 -0.066680 -0.003106 0.055864 0.012257 0.107722 -0.015715 0.114290 0.107698 -0.202604 -0.059592 0.205666 0.083970 -0.038500 -0.004018 0.094110 -0.062035 -0.014956 -0.032639 0.008634 0.039040 0.160754 0.033909 -0.124660 -0.112609 0.020467 -0.079340 -0.085457 0.363797 -0.207389 0.015213 -0.333075 -0.060083 -0.101766 0.164238 -0.068320 0.057171 0.047644 0.254247 0.183174 -0.196317 0.233853 0.057881 0.202323 -0.023884 0.020900 0.063470 -0.214188 -0.013114 -0.043424 0.311838 0.121449 -0.285643 0.420467 0.021801 0.054585 0.021920 -0.112378 -0.170281 -0.087286 0.198469 0.086107 -0.055023 -0.025684 0.185783 -0.106890 0.091127 -0.112958 -0.292604 0.038235 0.126882 0.044062 0.073386 0.167459 -0.239807 0.075411 0.046533 -0.132729 0.161752 0.051127 0.184043 -0.261274 0.059541 -0.023301 -0.067783 0.113922 -0.426542 -0.141775 -0.139270 -0.201241 -0.260702 -0.181325 0.267375 -0.183611 -0.060026 -0.227477 0.186628 -0.030002 -0.275042 0.009328 0.143741 -0.150884
40 -0.335226 0.153846 -0.084900 0.083998 0.377406 0.188687 0.025838 -0.023274 0.063553 0.033460 0.362376 0.072286 -0.100805 -0.008851 0.117096 -0.188716 -0.168410 -0.308691 0.007305 0.323622 0.015968 -0.179290 -0.093808 0.076658 0.283966 0.249593 -0.437438 -0.094418 -0.050356 0.041720 -0.156834 0.204187 -0.016049 0.293489 0.124438 -0.421012 -0.027324 0.259065 -0.042308 0.150362 -0.054096 0.068225 -0.049648 0.023820 -0.146493 0.015951 -0.196907 0.089155 0.032692 -0.089863 -0.047537 -0.076157 -0.049132 -0.156498 0.393968 -0.063235 -0.029313 -0.083672 0.158595 -0.505868 0.146432 0.152455 0.050855 0.140452 0.352211 -0.054416 -0.134580 0.027704 0.341104 0.099804 -0.027694 -0.002503 0.113996 -0.299541 0.043636 -0.081504 0.101642 0.274375 -0.096400 0.197082 -0.076547 0.081410 0.133058 0.049689 -0.008174 -0.152257 0.334262 -0.034130 0.015412 0.136505 0.110053 -0.045356 -0.007652 -0.182504 -0.245844 0.006733 -0.097354 -0.002088 0.213146 -0.186007 -0.034981 -0.004150 -0.028318 -0.287801 0.000393 0.049925 -0.078280 -0.144275 -0.157144 -0.233769 -0.080052 0.075277 -0.188330 0.034121 -0.102837 0.126413 -0.108018 -0.326124 0.381411 -0.354606 -0.002272 -0.082643 0.063413 0.118898 -0.231074 -0.053737 0.283423 -0.101968
14 -0.316127 -0.198681 0.012523 0.043057 0.286081 0.164607 0.011308 -0.161415 -0.152009 0.087587 -0.038073 0.343644 -0.025021 0.030028 0.090235 0.031179 -0.054413 -0.211958 0.138711 0.400308 0.095123 0.120844 -0.110462 -0.018650 0.044182 0.140910 -0.366590 -0.051119 -0.200026 0.076925 -0.036512 0.342513 -0.089881 0.406584 0.085923 -0.356471 0.136156 0.214069 -0.121125 0.307945 -0.264863 0.082987 0.186769 -0.089284 -0.343740 0.089199 -0.173108 -0.003023 -0.221675 -0.103510 0.015924 0.121660 -0.001546 -0.067737 0.089395 -0.113525 -0.113726 0.042117 -0.092141 -0.536939 0.177674 -0.097872 -0.090956 0.091305 0.074135 -0.100325 -0.161196 -0.172632 0.302758 0.011952 -0.146581 0.026042 -0.022996 -0.142587 0.132908 0.056416 0.047120 0.190169 -0.117458 -0.030452 0.001056 -0.139833 0.257665 -0.001171 0.035999 0.100014 0.140656 0.042419 0.010110 0.063787 0.126228 0.082524 -0.210049 -0.045995 -0.149543 0.204006 -0.268045 0.025165 0.204389 -0.254481 -0.145799 -0.062317 -0.234425 -0.230825 -0.085423 0.232923 0.060387 0.033373 -0.239141 -0.067331 -0.149686 -0.067000 -0.185768 0.100983 0.036997 0.095732 -0.094257 -0.238246 0.053743 -0.126860 0.074924 -0.300528 0.160863 0.164346 -0.011227 -0.142465 0.034106 -0.148329
26 -0.123682 -0.207300 0.137718 -0.044957 0.173381 0.173581 0.157938 0.034204 -0.013595 0.018673 -0.148124 0.353502 0.062520 0.133353 -0.093931 -0.026420 -0.121035 -0.260190 -0.018675 0.074513 -0.069214 0.336224 0.005029 0.166728 -0.050845 0.056603 -0.252658 -0.017749 -0.020449 0.012426 0.106699 0.050444 -0.066912 0.033743 -0.077623 -0.318154 0.205530 0.029802 -0.059292 0.173154 -0.188252 0.242556 0.407064 -0.191028 -0.322364 0.049605 0.021804 -0.142008 -0.209018 -0.051387 0.000603 0.108573 0.047153 0.139252 0.034665 -0.204128 0.017454 -0.067638 -0.150287 -0.216935 0.007600 -0.387669 -0.251413 -0.176664 -0.022316 0.169450 -0.088513 0.103423 0.019438 0.082699 -0.120768 0.073849 0.053116 -0.163676 0.152430 -0.072363 0.245949 0.035772 -0.218893 0.062737 0.086808 -0.257669 0.230463 -0.243740 0.062867 0.291528 0.274821 0.097003 -0.006274 0.062930 0.023711 0.026874 -0.275654 0.064376 -0.240920 0.239894 -0.097938 -0.148319 0.060366 -0.052839 -0.173538 0.079832 -0.007616 -0.299906 0.047969 0.312272 0.142158 0.016789 -0.069201 0.209160 -0.130405 -0.015086 -0.211311 -0.065824 -0.037203 -0.084406 -0.040767 -0.050944 -0.007524 -0.193737 0.032804 -0.286391 0.072448 0.009541 -0.030137 -0.020343 -0.018299 -0.107479
69 -0.355327 -0.175072 0.018717 0.078897 0.272010 0.223100 -0.006662 -0.132852 -0.165593 0.057510 0.013903 0.366427 -0.007788 0.044224 0.075262 0.086007 -0.106245 -0.228137 0.177205 0.441707 0.047908 0.123339 -0.104747 0.018998 0.019302 0.213074 -0.422204 -0.029158 -0.226435 0.066154 -0.050373 0.372342 -0.115389 0.394335 0.100025 -0.413790 0.173270 0.271334 -0.115006 0.345128 -0.294670 0.027151 0.211121 -0.020749 -0.337680 0.101014 -0.160862 0.016125 -0.282774 -0.133586 -0.025201 0.183683 -0.059203 -0.115537 0.128530 -0.144294 -0.173107 0.033798 -0.085435 -0.565144 0.185407 -0.109938 -0.101989 0.112597 0.189538 -0.089663 -0.207310 -0.140446 0.319186 -0.010612 -0.109556 0.069252 -0.059087 -0.186035 0.171476 0.144354 0.077983 0.208236 -0.166112 0.080023 0.060684 -0.162465 0.238929 0.001731 -0.082225 0.119791 0.124418 0.036466 -0.000049 -0.006133 0.183186 0.080261 -0.204591 -0.009249 -0.151029 0.156541 -0.202675 0.005640 0.154527 -0.267655 -0.197948 -0.066158 -0.308806 -0.264849 -0.144837 0.226830 0.035008 -0.050673 -0.215766 -0.099462 -0.136665 0.037232 -0.210578 0.139654 0.099501 0.064236 -0.223049 -0.238784 0.014225 -0.207754 0.043245 -0.340812 0.233679 0.194424 -0.029341 -0.159444 0.039533 -0.159946
8 -0.244598 0.074244 -0.154324 -0.059926 0.111275 0.193236 -0.028519 0.166473 0.278355 0.019359 0.348209 0.294499 -0.158726 -0.030806 0.100173 -0.094599 -0.405175 -0.180813 0.100312 0.253299 -0.008842 -0.289308 -0.023768 0.227312 0.135971 0.338901 -0.264570 -0.020785 0.037607 0.016366 0.021981 0.176445 -0.065347 0.039526 0.065522 -0.202143 0.193250 0.378077 0.150347 0.107647 -0.135214 -0.062392 -0.122915 0.254429 0.014370 0.176771 -0.037109 0.181606 -0.110528 -0.221445 -0.264964 0.045949 0.013047 -0.289417 0.343669 -0.035532 -0.041319 -0.268142 -0.087590 -0.171458 0.185340 -0.135620 0.098416 0.343314 0.262101 -0.030503 -0.211215 0.100458 0.128218 0.016720 0.241426 0.088776 0.018530 -0.218647 0.264684 0.189859 0.037672 0.121614 -0.197630 0.388330 -0.007434 -0.025417 -0.255109 -0.183535 -0.449658 -0.124458 0.194376 -0.084419 -0.105154 -0.182642 0.328439 -0.063415 0.279202 0.067848 -0.154247 -0.132718 0.190036 -0.028930 -0.084312 0.122780 -0.231703 0.046496 -0.375609 0.117442 0.035880 -0.079520 0.068028 -0.175296 0.001759 -0.298319 0.108855 0.210984 -0.223379 -0.048922 -0.135269 0.011572 -0.485272 0.032627 -0.038396 -0.173856 -0.134355 -0.337987 0.168537 0.006313 -0.098831 -0.191613 0.081326 -0.146050
64 -0.130383 0.101613 0.094015 -0.011049 0.144644 0.245296 0.166492 0.227055 0.172469 -0.056368 0.188558 0.170907 -0.000136 0.134239 -0.097918 -0.119537 -0.273285 -0.333139 -0.114759 -0.028781 -0.212339 0.121909 0.033450 0.308036 0.078439 0.203215 -0.261779 0.012793 0.111118 -0.037487 0.051476 -0.095221 -0.022301 -0.173572 -0.070978 -0.350393 0.160541 0.112413 0.046056 0.049174 -0.047354 0.163260 0.245951 -0.005643 -0.109948 -0.002124 0.090264 -0.035117 -0.104158 -0.049894 -0.103594 0.015593 -0.043171 0.031189 0.321476 -0.178345 0.010914 -0.202744 0.019090 -0.096876 -0.043422 -0.288334 -0.147865 -0.139110 0.242383 0.254879 -0.101024 0.351932 -0.025488 0.096077 0.071872 0.116005 0.106824 -0.294580 0.155719 -0.066232 0.318523 0.071081 -0.249573 0.346137 0.116906 -0.121947 0.050918 -0.239612 -0.136317 0.150013 0.388868 0.038699 0.004062 -0.002669 0.040976 -0.078608 -0.058767 0.067737 -0.287151 0.038180 0.185721 -0.178091 -0.067906 0.071807 -0.174568 0.167271 0.054884 -0.276597 0.076020 0.149587 0.033012 -0.190023 0.080544 0.068428 -0.019872 0.216063 -0.234112 -0.105614 -0.083621 -0.112078 -0.244603 -0.001710 0.129913 -0.386667 -0.087964 -0.173623 0.053720 -0.019319 -0.186357 0.014464 0.135719 -0.045314
4 -0.325589 0.178215 0.010971 0.037893 0.142270 0.251424 0.017325 0.139354 0.016202 0.074980 0.369729 0.198513 -0.046865 0.077839 -0.019862 -0.103259 -0.292282 -0.334111 0.059283 0.241861 -0.093785 -0.130326 -0.010056 0.196768 0.180415 0.349999 -0.454959 0.017218 -0.031717 0.032707 -0.098362 0.075032 -0.142144 0.021051 -0.019293 -0.471869 0.215831 0.333140 -0.015232 0.182117 -0.157997 -0.048613 0.113277 0.248752 -0.107843 0.100493 -0.050755 0.149749 -0.130377 -0.079369 -0.109462 -0.025775 -0.052974 -0.246336 0.371284 -0.176021 -0.162596 -0.077972 0.080549 -0.358774 0.133804 -0.013353 0.024836 0.051315 0.463838 0.094431 -0.162966 0.264367 0.257597 -0.061905 0.109155 0.074944 0.093906 -0.396749 0.209412 0.100279 0.225878 0.161962 -0.085693 0.387801 0.198851 -0.103238 0.022733 -0.022358 -0.344028 0.041252 0.407265 -0.064025 0.111173 -0.024946 0.130599 -0.045099 -0.127934 -0.019453 -0.301955 -0.122272 0.157892 -0.126498 0.041290 -0.085128 -0.221138 0.087516 -0.098554 -0.139763 -0.057445 -0.006268 -0.142170 -0.245653 0.016108 -0.205501 -0.020551 0.390686 -0.171315 0.109771 -0.042431 0.121710 -0.484056 -0.038172 0.054242 -0.473109 -0.040496 -0.124165 0.186785 0.076829 -0.230352 -0.035366 0.320666 0.034283
9 -0.209610 -0.061840 -0.230161 -0.056456 0.117092 0.170215 -0.019151 0.181457 0.374789 -0.102442 0.298627 0.376381 -0.144754 0.032348 0.113891 -0.134761 -0.409516 -0.022354 0.060653 0.280131 0.041158 -0.305106 0.019411 0.216356 0.098745 0.304186 -0.267947 -0.078094 -0.017697 -0.044615 0.034004 0.186007 -0.003254 0.059407 0.151703 -0.034206 0.218594 0.293090 0.109261 0.094705 -0.212395 -0.087767 -0.061112 0.221229 0.024317 0.216764 0.047162 0.148509 -0.151550 -0.314928 -0.322551 0.118467 0.023811 -0.277576 0.297229 -0.071862 -0.015280 -0.314241 -0.213346 -0.158595 0.208682 -0.201561 0.112317 0.417502 0.165132 -0.055293 -0.308124 -0.022707 0.130604 0.024976 0.194308 0.105833 -0.000221 -0.237676 0.324166 0.233475 0.046294 0.076468 -0.316725 0.385670 -0.036190 -0.037217 -0.292110 -0.243389 -0.503503 -0.100330 0.163680 -0.093831 -0.250230 -0.152305 0.413671 -0.094829 0.374784 0.156661 -0.143191 -0.095217 0.174304 0.011737 -0.054539 0.259471 -0.225966 0.035465 -0.532318 0.136678 -0.014589 -0.022799 0.166946 -0.098759 0.004116 -0.244874 0.122161 0.134473 -0.247618 -0.143953 -0.111516 -0.124629 -0.463162 0.089617 -0.091910 -0.084762 -0.115657 -0.427650 0.166849 -0.019972 -0.044250 -0.229658 -0.063311 -0.198812
67 -0.388627 0.220157 -0.089922 0.086311 0.383980 0.224874 0.029298 0.058025 0.103365 0.043020 0.439169 0.095157 -0.143504 -0.003619 0.101864 -0.219371 -0.230881 -0.360956 -0.012109 0.316548 -0.020333 -0.246079 -0.063538 0.113985 0.326016 0.318281 -0.480118 -0.067338 -0.027291 0.028686 -0.164127 0.165011 -0.029520 0.186219 0.085131 -0.473616 0.071906 0.325095 -0.022966 0.167887 -0.079749 0.050523 -0.030884 0.129924 -0.130469 0.045330 -0.176411 0.138233 0.035164 -0.095783 -0.084958 -0.089974 -0.038734 -0.217307 0.467054 -0.071570 -0.058497 -0.078456 0.163950 -0.479670 0.159666 0.140289 0.054421 0.162711 0.406448 -0.019427 -0.131846 0.125879 0.340163 0.042695 0.071359 0.025864 0.142116 -0.349167 0.109335 -0.029801 0.107762 0.260125 -0.078586 0.268307 -0.009417 0.065825 0.069095 0.040645 -0.118896 -0.151388 0.404013 -0.051407 0.076255 0.100542 0.127763 -0.057518 0.043142 -0.137843 -0.272280 -0.068064 0.010258 -0.045529 0.148817 -0.151164 -0.077610 0.060344 -0.064919 -0.228000 -0.017030 0.006056 -0.114003 -0.163105 -0.137871 -0.285403 -0.052500 0.188983 -0.170804 0.055746 -0.112725 0.171192 -0.225569 -0.253354 0.346638 -0.453322 -0.037259 -0.079090 0.076563 0.113508 -0.252921 -0.057490 0.337155 -0.042072
11 -0.124655 -0.057446 -0.244393 -0.036550 0.111095 0.113128 0.033923 0.267875 0.405244 -0.220583 0.285829 0.238564 -0.054607 0.142033 0.058024 -0.166718 -0.372627 0.074179 -0.037395 0.124416 0.048699 -0.305210 0.085700 0.349411 0.078494 0.251493 -0.217288 -0.132602 -0.055020 -0.044059 0.018629 0.130265 0.048173 0.086316 0.212429 0.090461 0.122822 0.208355 0.099939 -0.021888 -0.164627 -0.035502 -0.066242 0.125560 0.038992 0.165649 0.160571 0.225812 -0.013134 -0.307800 -0.284530 0.085874 0.017468 -0.217632 0.348338 -0.212512 0.032904 -0.429805 -0.306601 -0.040236 0.260223 -0.161029 0.165171 0.350699 0.125571 0.098567 -0.377033 0.052261 0.091545 0.119717 0.084763 0.049916 0.042083 -0.282010 0.232833 0.167578 0.235747 0.030249 -0.402024 0.480060 -0.015265 0.026863 -0.241328 -0.232487 -0.464404 -0.105978 0.196503 -0.014103 -0.244768 -0.076913 0.398275 -0.179389 0.385326 0.086108 -0.246779 -0.039604 0.216358 0.062472 0.049774 0.465915 -0.272968 0.069622 -0.374841 0.121846 0.072762 -0.005180 0.324359 -0.139479 0.076158 -0.116563 0.031825 0.097570 -0.422867 -0.260183 -0.173682 -0.308072 -0.418259 0.047128 0.056755 -0.079361 -0.071235 -0.430454 0.225303 -0.107894 -0.158583 -0.147612 -0.037392 -0.210659
2 -0.159679 -0.151669 0.120731 -0.163649 0.277663 0.200071 0.218672 0.189003 0.046922 0.108786 -0.238446 0.386637 -0.069152 -0.005359 -0.112047 -0.062590 -0.217088 -0.383793 -0.070021 -0.102371 0.015580 0.262380 -0.031560 0.338629 -0.029856 0.017799 -0.084293 -0.032074 0.094078 0.094358 0.170826 0.144761 -0.101513 0.084208 -0.155810 -0.384524 0.310682 0.139548 0.106844 0.158218 -0.095713 0.413899 0.286985 -0.209512 -0.400133 0.001550 -0.045355 -0.007734 -0.010684 -0.067770 0.018305 -0.041685 0.293451 0.228633 0.140891 -0.152992 0.133595 -0.255965 -0.307614 -0.098844 0.163947 -0.493820 -0.257824 -0.177207 -0.255458 0.244949 -0.004638 0.227560 -0.153873 0.104652 -0.053847 -0.038057 0.185801 -0.007833 0.189925 -0.193281 0.167180 -0.057418 -0.189180 -0.079851 0.024113 -0.282877 0.155877 -0.404928 0.221719 0.191766 0.270723 0.242077 0.122839 0.087319 0.065680 -0.011366 -0.129135 -0.076583 -0.309824 0.310159 -0.103953 -0.176213 -0.007404 0.144753 -0.279604 0.155492 0.154970 -0.080599 0.330393 0.241705 0.373543 0.131301 -0.139539 0.116307 -0.156350 -0.231037 -0.386613 -0.172259 -0.358502 -0.081137 0.014916 -0.025652 0.082544 -0.131394 -0.007828 -0.339256 0.070098 -0.138300 -0.011357 -0.102182 0.080903 -0.108133
24 -0.066700 -0.024861 -0.090103 -0.280531 0.183103 0.108086 0.260466 0.268260 0.304286 0.091146 0.007871 0.221881 -0.194351 0.023870 -0.024597 -0.203855 -0.330102 -0.270316 -0.153983 -0.235831 0.121886 -0.067678 -0.050700 0.536456 0.069391 0.040329 -0.012934 -0.190251 0.093711 0.179195 0.167964 0.186500 -0.032052 0.142335 -0.011909 -0.154153 0.155530 0.264963 0.189980 -0.068506 0.000256 0.400652 -0.104717 -0.153118 -0.136499 0.088498 0.075089 0.241491 0.214338 -0.175918 -0.087580 -0.190452 0.328855 0.015630 0.353295 -0.180656 0.233761 -0.640374 -0.404480 0.048443 0.411596 -0.338093 0.046281 0.033860 -0.300684 0.259595 -0.121568 0.324692 -0.174750 0.215138 -0.024826 -0.157284 0.268850 -0.031129 0.078583 -0.302322 0.207300 -0.091141 -0.236048 0.058559 -0.005479 -0.024428 0.018329 -0.420537 0.055866 -0.132524 0.286396 0.289255 -0.005808 0.143101 0.155411 -0.125329 0.224540 -0.216920 -0.434163 0.273022 0.044227 0.072175 0.051606 0.518559 -0.378546 0.262341 0.220559 0.315877 0.612913 0.050250 0.570490 0.067639 0.015729 -0.010405 -0.076881 -0.299249 -0.680516 -0.393603 -0.681653 -0.181097 -0.110945 0.010524 0.262571 0.147241 0.006168 -0.347170 0.095858 -0.239740 -0.169182 -0.084351 0.133402 -0.108521
35 -0.208490 -0.413874 -0.153510 -0.232756 0.101544 0.095518 0.195693 -0.186773 0.236068 0.136542 0.034649 0.897973 -0.070014 0.332043 0.041585 -0.704162 -0.321236 0.115730 0.042612 0.551983 0.180188 -0.251694 -0.000264 -0.109838 0.347115 -0.019648 -0.674230 -0.191891 0.021755 -0.042158 0.022747 -0.055112 -0.164458 0.275299 0.028313 0.127621 0.260191 -0.176863 -0.032706 0.212693 -0.307644 0.200057 0.517743 -0.336968 -0.301163 0.332131 -0.095947 -0.191407 -0.300555 -0.255815 -0.144241 -0.286687 0.446244 -0.050364 -0.150240 -0.143953 0.309322 -0.148263 -0.367320 -0.609099 0.001795 -0.345479 0.073814 0.090028 -0.263978 -0.155526 -0.375487 -0.323926 0.500282 0.099583 -0.130978 -0.164075 0.381980 -0.546035 0.424737 -0.280163 0.209146 -0.102168 -0.021921 -0.011674 -0.054258 -0.355030 -0.076725 -0.409915 0.079702 0.199809 0.824216 -0.173836 -0.366541 0.530802 0.100474 -0.012168 -0.575846 0.116296 -0.566978 0.255730 -0.457880 -0.110749 0.557601 0.157926 0.148633 -0.017508 -0.396079 -0.176448 0.223576 0.272222 0.089386 0.513545 -0.012024 0.215931 -0.064397 -0.266228 -0.023848 -0.291651 -0.566142 0.176558 0.155222 0.168902 -0.284138 0.046992 0.236186 -0.228307 -0.188499 0.094555 0.256730 -0.120775 0.179331 -0.191086
34 -0.238070 -0.435962 0.010844 -0.115568 0.225349 0.126711 0.159318 -0.169591 0.005879 0.127531 -0.191020 0.716818 -0.006912 0.193861 0.026064 -0.267569 -0.159645 -0.126590 0.082744 0.433218 0.120907 0.151503 -0.040027 -0.045030 0.084682 0.000663 -0.492330 -0.124535 -0.097546 0.039132 0.087455 0.172776 -0.144863 0.332940 -0.028084 -0.184114 0.287608 0.004761 -0.111840 0.330391 -0.344964 0.254530 0.508886 -0.305986 -0.435289 0.215425 -0.088962 -0.199727 -0.334146 -0.157811 -0.026653 0.013991 0.252761 0.034587 -0.126238 -0.190841 0.091479 -0.049381 -0.313366 -0.554631 0.106195 -0.397329 -0.159422 0.016863 -0.195239 -0.055804 -0.251714 -0.232250 0.323685 0.069044 -0.191439 -0.035938 0.148859 -0.281778 0.303891 -0.120956 0.162782 0.024363 -0.117424 -0.084274 0.034680 -0.345651 0.212810 -0.305320 0.139061 0.293106 0.462508 0.018422 -0.148798 0.296142 0.078090 0.099831 -0.482364 0.073961 -0.363166 0.376657 -0.393370 -0.084461 0.345365 -0.073691 -0.096281 0.004071 -0.286364 -0.236970 0.085250 0.374339 0.167187 0.308500 -0.161565 0.182087 -0.143944 -0.222203 -0.189217 -0.112975 -0.259213 0.097444 0.077379 -0.010546 -0.170050 -0.003919 0.174775 -0.377730 0.017598 0.125602 0.136457 -0.130236 0.024026 -0.196657
25 -0.080043 -0.051017 -0.045029 -0.240155 0.183188 0.121833 0.237252 0.211732 0.234830 0.091249 -0.030212 0.232324 -0.157904 0.033603 -0.035579 -0.166746 -0.276551 -0.286817 -0.124299 -0.175141 0.085047 0.014716 -0.050885 0.454630 0.054737 0.030335 -0.045706 -0.148733 0.081343 0.151867 0.158744 0.157863 -0.037125 0.119863 -0.037741 -0.200434 0.147939 0.224732 0.141361 -0.023396 -0.022952 0.379128 -0.017524 -0.169590 -0.171814 0.071858 0.052055 0.161851 0.142970 -0.139597 -0.066806 -0.143146 0.282064 0.049409 0.285650 -0.170062 0.199063 -0.522583 -0.333211 -0.002826 0.319820 -0.335917 -0.014857 -0.023165 -0.248490 0.234392 -0.094334 0.286055 -0.146742 0.185748 -0.043820 -0.120234 0.233928 -0.039027 0.079343 -0.276181 0.196492 -0.056189 -0.212932 0.032663 -0.005069 -0.070310 0.063446 -0.384412 0.085146 -0.058471 0.280648 0.245670 -0.003110 0.124547 0.115576 -0.094066 0.125923 -0.179563 -0.393045 0.264376 0.002923 0.024698 0.047320 0.386187 -0.326388 0.224594 0.193016 0.184975 0.513191 0.094587 0.473231 0.060108 -0.009919 0.019278 -0.089557 -0.253221 -0.576066 -0.325592 -0.561080 -0.145216 -0.074774 -0.013986 0.222435 0.076267 0.007988 -0.309254 0.073890 -0.188717 -0.142098 -0.072187 0.108159 -0.105244
58 -0.233028 -0.450573 -0.167171 -0.242163 0.125696 0.100016 0.201412 -0.206394 0.245467 0.147588 0.035706 0.953703 -0.073035 0.345231 0.061559 -0.733718 -0.344014 0.112257 0.058306 0.605634 0.196959 -0.269331 -0.008427 -0.126293 0.362399 -0.019502 -0.731477 -0.218552 0.006245 -0.028322 0.024383 -0.020821 -0.173647 0.336746 0.037687 0.120579 0.272933 -0.155154 -0.047304 0.248952 -0.337565 0.204719 0.530474 -0.357512 -0.333280 0.363626 -0.108879 -0.193514 -0.322265 -0.279043 -0.152802 -0.284473 0.471973 -0.065648 -0.162545 -0.150158 0.310578 -0.161225 -0.394143 -0.668437 0.037716 -0.358389 0.078243 0.123344 -0.270429 -0.174661 -0.404581 -0.370538 0.552889 0.111801 -0.150356 -0.177198 0.391037 -0.572293 0.448318 -0.283245 0.207730 -0.096177 -0.027036 -0.017691 -0.055903 -0.365405 -0.065990 -0.422732 0.084004 0.200223 0.851695 -0.177288 -0.386799 0.555123 0.118447 0.000773 -0.601005 0.119027 -0.592259 0.292689 -0.499359 -0.104958 0.602712 0.149327 0.134194 -0.026765 -0.430590 -0.171649 0.226306 0.298009 0.105207 0.538670 -0.031877 0.206933 -0.078703 -0.290897 -0.051501 -0.301972 -0.601309 0.184946 0.153629 0.155700 -0.294934 0.063087 0.254411 -0.261535 -0.181323 0.114169 0.261857 -0.140062 0.188765 -0.218066
50 -0.093555 -0.020572 -0.045639 -0.237775 0.216302 0.121450 0.248033 0.211107 0.205980 0.115151 -0.027877 0.183782 -0.171647 0.001795 -0.027281 -0.146040 -0.255474 -0.318914 -0.133169 -0.204980 0.098837 0.013183 -0.076465 0.475156 0.063523 0.030198 -0.027048 -0.162149 0.072602 0.179784 0.144269 0.199047 -0.039052 0.171668 -0.023847 -0.243295 0.123287 0.258545 0.146967 -0.024668 0.006329 0.405874 -0.069156 -0.179559 -0.185769 0.045080 0.028925 0.192169 0.196105 -0.128762 -0.037360 -0.171482 0.290071 0.046948 0.322002 -0.171731 0.195071 -0.539473 -0.325992 -0.016104 0.370261 -0.302216 -0.004547 -0.029865 -0.251773 0.240351 -0.071884 0.302035 -0.147984 0.200129 -0.068471 -0.144346 0.248223 -0.009313 0.036447 -0.309786 0.193400 -0.039920 -0.200676 0.002862 -0.016748 -0.032891 0.106336 -0.356448 0.133635 -0.098192 0.263179 0.288332 0.040021 0.148122 0.106710 -0.095838 0.136144 -0.243511 -0.407663 0.283727 -0.011976 0.049761 0.060466 0.384133 -0.344317 0.232464 0.279374 0.213213 0.559729 0.078181 0.502632 0.048628 -0.033440 -0.001966 -0.110717 -0.294822 -0.620617 -0.316692 -0.592583 -0.132999 -0.053540 -0.059323 0.298376 0.099750 0.015359 -0.287674 0.083719 -0.201000 -0.176464 -0.069925 0.142415 -0.088785
52 -0.077484 -0.060325 -0.035270 -0.243051 0.182535 0.128906 0.240193 0.232640 0.239524 0.067923 -0.046670 0.250369 -0.142951 0.031675 -0.047435 -0.143290 -0.292202 -0.274979 -0.122822 -0.187989 0.074048 0.031989 -0.048302 0.476142 0.023306 0.043988 -0.030595 -0.137349 0.087778 0.141108 0.176652 0.168570 -0.035106 0.119938 -0.028838 -0.194281 0.162439 0.224960 0.165638 -0.020436 -0.025506 0.381975 -0.007507 -0.167277 -0.184015 0.061529 0.060413 0.166203 0.126310 -0.151714 -0.073989 -0.121501 0.278318 0.059065 0.294115 -0.175189 0.195088 -0.536213 -0.362492 0.016958 0.321060 -0.372548 -0.033668 -0.016399 -0.257437 0.252355 -0.101356 0.291729 -0.167696 0.198985 -0.038656 -0.105513 0.222680 -0.030113 0.093769 -0.254008 0.212841 -0.067079 -0.248688 0.059184 -0.000625 -0.086089 0.050745 -0.407249 0.073740 -0.042916 0.265524 0.265957 -0.004832 0.103994 0.144838 -0.097754 0.134907 -0.160948 -0.386663 0.268782 0.016795 0.019877 0.025216 0.413081 -0.346898 0.223667 0.179530 0.185024 0.514902 0.108651 0.506070 0.049552 -0.012529 0.039187 -0.091726 -0.254380 -0.595548 -0.334214 -0.545924 -0.180903 -0.099266 -0.007751 0.206594 0.075056 -0.008362 -0.351832 0.093691 -0.198606 -0.135775 -0.084219 0.089029 -0.128370
70 -0.247157 -0.374505 0.046313 -0.049702 0.226473 0.138023 0.090830 -0.187563 -0.127376 0.125117 -0.205010 0.548718 0.006809 0.123250 0.033120 -0.066982 -0.060880 -0.166376 0.117266 0.389598 0.108402 0.230319 -0.083832 -0.046673 0.014609 0.033048 -0.398428 -0.076489 -0.164171 0.064109 0.048934 0.256164 -0.126322 0.357559 0.008148 -0.271388 0.225029 0.080040 -0.138656 0.329993 -0.324890 0.190195 0.393841 -0.240141 -0.433556 0.147456 -0.124968 -0.125329 -0.316485 -0.118196 0.032529 0.092555 0.129273 0.031043 -0.075046 -0.159973 -0.015165 0.029047 -0.230800 -0.525844 0.125609 -0.289605 -0.169393 -0.007965 -0.123846 -0.059944 -0.179779 -0.204353 0.279269 0.033054 -0.208212 -0.001394 0.050636 -0.179339 0.197157 -0.037248 0.111339 0.086662 -0.113262 -0.122140 0.039017 -0.286987 0.280520 -0.149953 0.133928 0.250521 0.269874 0.052666 -0.053861 0.173670 0.073041 0.112027 -0.408000 0.030111 -0.237416 0.328153 -0.358166 -0.036696 0.264613 -0.193583 -0.127871 -0.029440 -0.237197 -0.244801 -0.002303 0.343018 0.127430 0.199357 -0.209908 0.121074 -0.170039 -0.170328 -0.171329 0.005425 -0.070371 0.088923 0.021664 -0.116265 -0.100526 -0.024020 0.146729 -0.342239 0.088457 0.145353 0.094126 -0.127654 -0.019942 -0.159243
71 -0.203675 -0.393756 -0.106176 -0.187829 0.155929 0.092778 0.168890 -0.176105 0.175344 0.129869 -0.031683 0.796962 -0.048382 0.264145 0.051155 -0.555957 -0.262373 0.025806 0.047609 0.499086 0.154568 -0.125914 -0.018517 -0.087365 0.255342 -0.016738 -0.591881 -0.172291 -0.010322 -0.011118 0.033891 0.029051 -0.147775 0.303018 0.005503 0.022585 0.239707 -0.113776 -0.053227 0.243872 -0.290263 0.212253 0.478041 -0.322245 -0.324865 0.289096 -0.099580 -0.191200 -0.283745 -0.208779 -0.104259 -0.184524 0.370209 -0.032509 -0.136697 -0.150734 0.230302 -0.116478 -0.329834 -0.583603 0.053000 -0.335160 -0.000735 0.085940 -0.223966 -0.115226 -0.320814 -0.296464 0.429224 0.090992 -0.142351 -0.118152 0.298340 -0.440355 0.367921 -0.224904 0.182316 -0.055858 -0.047076 -0.038564 -0.020830 -0.318018 0.023517 -0.358671 0.107067 0.205500 0.679125 -0.102011 -0.279572 0.451639 0.089726 0.031490 -0.515664 0.087013 -0.480178 0.299141 -0.421147 -0.097671 0.483090 0.075753 0.062005 -0.014178 -0.338557 -0.183698 0.178793 0.287437 0.111706 0.428605 -0.066262 0.177655 -0.088461 -0.255427 -0.097764 -0.231999 -0.467185 0.152078 0.143277 0.093065 -0.213213 0.031267 0.206160 -0.260841 -0.124637 0.103647 0.201291 -0.120196 0.129823 -0.197916
57 -0.205091 -0.409690 -0.071798 -0.174314 0.165478 0.106291 0.173640 -0.179207 0.138686 0.126061 -0.069591 0.793639 -0.029233 0.265066 0.029716 -0.517859 -0.239538 -0.000625 0.043899 0.488002 0.132208 -0.054642 -0.012525 -0.099736 0.227780 -0.018424 -0.590473 -0.149782 -0.013212 -0.021857 0.039821 0.026906 -0.147498 0.283851 -0.014317 -0.012952 0.253245 -0.127046 -0.076792 0.266654 -0.298028 0.224699 0.526132 -0.335114 -0.355089 0.271533 -0.094576 -0.221378 -0.309034 -0.188051 -0.087137 -0.149559 0.349410 0.003599 -0.156509 -0.156479 0.212512 -0.074411 -0.314105 -0.579511 0.017986 -0.358991 -0.051875 0.042116 -0.219329 -0.106139 -0.300003 -0.286667 0.410317 0.085485 -0.152558 -0.096090 0.283269 -0.428583 0.367885 -0.218439 0.189197 -0.047889 -0.048802 -0.052490 -0.008250 -0.339275 0.065510 -0.353111 0.132472 0.250795 0.663042 -0.095161 -0.260360 0.437061 0.071393 0.050004 -0.550718 0.103843 -0.464024 0.311804 -0.424856 -0.118239 0.461361 0.029444 0.063581 -0.011536 -0.326943 -0.235833 0.147600 0.326641 0.102164 0.423843 -0.082839 0.211118 -0.099841 -0.242546 -0.079103 -0.204865 -0.414958 0.148724 0.155747 0.080757 -0.221440 0.001423 0.207515 -0.267630 -0.123809 0.112095 0.210860 -0.117492 0.107751 -0.193037
32 -0.244305 -0.376369 0.025828 -0.048795 0.215612 0.151289 0.093905 -0.150202 -0.057883 0.092435 -0.167474 0.585564 -0.000941 0.137004 0.033872 -0.091702 -0.110686 -0.161751 0.099961 0.395758 0.084095 0.212367 -0.057944 -0.033619 0.015682 0.062745 -0.415210 -0.065163 -0.138089 0.026120 0.058343 0.213702 -0.108095 0.290703 0.000576 -0.252061 0.256526 0.077851 -0.130327 0.317355 -0.346058 0.180141 0.422327 -0.207617 -0.407170 0.172224 -0.083901 -0.145898 -0.337227 -0.143053 -0.021097 0.115973 0.111144 0.015340 -0.068959 -0.162305 -0.011466 0.014769 -0.226943 -0.498213 0.095530 -0.333079 -0.176737 0.023313 -0.096009 -0.056726 -0.203209 -0.187588 0.263141 0.019819 -0.163755 0.037149 0.041538 -0.214003 0.246805 0.002196 0.122388 0.079632 -0.149366 -0.060894 0.035820 -0.295024 0.229782 -0.194306 0.051192 0.269454 0.299133 0.020364 -0.094509 0.137200 0.101290 0.099030 -0.351500 0.084451 -0.235364 0.295710 -0.302774 -0.067102 0.219039 -0.162710 -0.123474 -0.018919 -0.305816 -0.251475 -0.028366 0.346041 0.116270 0.175298 -0.190231 0.116167 -0.131286 -0.123520 -0.150559 -0.012170 -0.051383 0.071102 -0.024484 -0.064618 -0.131048 -0.063695 0.116625 -0.377318 0.077970 0.136262 0.105331 -0.144449 -0.053556 -0.167976
53 -0.144595 -0.188823 0.021690 -0.237359 0.273335 0.161466 0.231584 0.186935 0.124031 0.121149 -0.222040 0.404536 -0.136869 -0.004363 -0.056895 -0.087964 -0.248996 -0.333115 -0.076719 -0.108463 0.118130 0.161105 -0.069640 0.408736 -0.021304 0.005620 -0.049543 -0.117190 0.053154 0.147495 0.195190 0.246286 -0.082948 0.191944 -0.089206 -0.296699 0.284879 0.219702 0.136556 0.113871 -0.113959 0.443941 0.139239 -0.229897 -0.366823 0.061434 -0.015541 0.099370 0.047335 -0.139583 -0.012375 -0.074807 0.351539 0.149189 0.200805 -0.180373 0.169044 -0.431627 -0.429329 -0.083609 0.324696 -0.483843 -0.146303 -0.057425 -0.360537 0.225652 -0.067481 0.204563 -0.149600 0.151203 -0.077499 -0.096366 0.205141 0.021379 0.173839 -0.232197 0.160350 -0.074440 -0.229848 -0.088484 -0.001876 -0.217978 0.135740 -0.440062 0.188671 0.080230 0.253450 0.294772 0.064185 0.116349 0.135957 -0.037613 0.006408 -0.140429 -0.363302 0.365219 -0.112301 -0.047153 0.049002 0.294156 -0.367845 0.188256 0.128780 0.120553 0.472499 0.211809 0.528232 0.154100 -0.122952 0.065572 -0.153642 -0.345096 -0.564668 -0.275852 -0.513269 -0.121831 -0.019035 -0.033050 0.137469 0.052223 0.017365 -0.428231 0.104744 -0.177031 -0.044804 -0.142926 0.059150 -0.152684
33 -0.245752 -0.443038 0.001366 -0.110606 0.230868 0.114702 0.142889 -0.171190 0.018638 0.124656 -0.187934 0.723968 -0.009994 0.175092 0.048786 -0.253788 -0.172902 -0.115766 0.095447 0.452514 0.134940 0.133715 -0.042229 -0.052452 0.068625 0.007312 -0.494749 -0.129742 -0.104028 0.045191 0.090236 0.212418 -0.146480 0.365656 -0.033223 -0.183125 0.290967 0.021141 -0.108636 0.352970 -0.347893 0.234687 0.493039 -0.294072 -0.420475 0.230061 -0.098220 -0.202047 -0.346601 -0.168067 -0.042167 0.040553 0.261193 0.004191 -0.145086 -0.181218 0.073208 -0.055104 -0.323098 -0.557683 0.142369 -0.401232 -0.155274 0.066553 -0.191211 -0.078063 -0.256673 -0.261485 0.328957 0.070143 -0.173046 -0.035126 0.137710 -0.256254 0.311780 -0.093699 0.137966 0.022471 -0.115919 -0.081986 0.053174 -0.339975 0.203477 -0.316380 0.122619 0.279765 0.428961 0.024116 -0.153003 0.289939 0.106012 0.123197 -0.462275 0.072175 -0.338911 0.383894 -0.394243 -0.077957 0.346776 -0.067210 -0.117214 -0.010975 -0.320064 -0.195645 0.085046 0.359445 0.181257 0.315247 -0.162520 0.150259 -0.137369 -0.231892 -0.209572 -0.117649 -0.272279 0.100987 0.067877 -0.012340 -0.191244 0.011103 0.177133 -0.400088 0.039297 0.135856 0.142577 -0.148790 0.011525 -0.218527
51 -0.076953 -0.058578 -0.049918 -0.242771 0.186250 0.126080 0.245581 0.237836 0.247678 0.071936 -0.035242 0.240132 -0.149059 0.043388 -0.042942 -0.158980 -0.292433 -0.266966 -0.140067 -0.205346 0.083142 0.013381 -0.038671 0.486798 0.037211 0.038915 -0.034421 -0.157497 0.078837 0.152759 0.167449 0.171508 -0.030464 0.130279 -0.021789 -0.181682 0.167775 0.229187 0.153995 -0.024935 -0.029618 0.383060 -0.019509 -0.172730 -0.177527 0.071398 0.074890 0.178663 0.151083 -0.151213 -0.073097 -0.136132 0.290278 0.045570 0.301227 -0.196016 0.197470 -0.558527 -0.374260 0.023358 0.349897 -0.360927 -0.018206 -0.007254 -0.260040 0.264115 -0.117403 0.295323 -0.160318 0.198516 -0.043227 -0.120457 0.235359 -0.045239 0.093509 -0.264799 0.229525 -0.069608 -0.252045 0.057330 0.006285 -0.072233 0.058009 -0.407604 0.069799 -0.050796 0.275298 0.269174 -0.004994 0.119932 0.137401 -0.102640 0.148169 -0.170807 -0.408269 0.270752 0.017048 0.032645 0.046535 0.440952 -0.356505 0.232532 0.189817 0.209995 0.527800 0.097336 0.525009 0.058599 -0.001008 0.033019 -0.096767 -0.257609 -0.625311 -0.344519 -0.565968 -0.182657 -0.097863 -0.003561 0.223857 0.085576 0.005464 -0.351116 0.100708 -0.208599 -0.151280 -0.074660 0.102302 -0.119889
59 -0.187028 -0.436652 -0.158642 -0.258063 0.093842 0.079056 0.200358 -0.190173 0.242663 0.143975 -0.000452 0.904530 -0.074187 0.322749 0.045452 -0.697306 -0.318214 0.130354 0.041802 0.534716 0.206137 -0.255086 -0.006722 -0.105547 0.330009 -0.048190 -0.644621 -0.209344 0.021916 -0.028732 0.038678 -0.030681 -0.163472 0.299358 0.026502 0.160620 0.257213 -0.172882 -0.024837 0.201782 -0.301674 0.216016 0.486418 -0.356069 -0.298091 0.345403 -0.090887 -0.182832 -0.284370 -0.261347 -0.139182 -0.289469 0.472721 -0.045133 -0.167829 -0.132387 0.326449 -0.176251 -0.408116 -0.584949 0.030773 -0.354468 0.085380 0.104436 -0.312883 -0.156677 -0.377254 -0.344904 0.482821 0.106374 -0.139001 -0.187885 0.386050 -0.514571 0.417661 -0.290916 0.193455 -0.122478 -0.018960 -0.041072 -0.063987 -0.348452 -0.082936 -0.420562 0.093617 0.180507 0.795246 -0.148194 -0.373869 0.533045 0.105788 -0.007232 -0.554575 0.108113 -0.561620 0.282517 -0.474764 -0.088500 0.562836 0.193524 0.130975 -0.012523 -0.386252 -0.119472 0.255758 0.270554 0.140321 0.537397 -0.016776 0.217877 -0.069380 -0.315627 -0.054666 -0.311012 -0.601075 0.163575 0.166636 0.174591 -0.285423 0.106904 0.238650 -0.249538 -0.187106 0.078178 0.268697 -0.136423 0.165750 -0.206004
0 -0.124315 0.085612 -0.080389 -0.179940 0.216823 0.138645 0.170237 0.212026 0.209339 0.054452 0.129149 0.055324 -0.153530 -0.025312 0.019105 -0.080756 -0.271735 -0.312215 -0.102296 -0.164873 0.066418 -0.078292 -0.081952 0.496579 0.059905 0.127467 -0.042906 -0.155524 0.035435 0.169519 0.094099 0.259604 -0.007850 0.199149 0.058973 -0.264664 0.041073 0.340110 0.168356 -0.054125 0.019655 0.285691 -0.215607 -0.067475 -0.102207 0.032182 0.006396 0.272662 0.211780 -0.141178 -0.078946 -0.117161 0.148224 -0.052589 0.424311 -0.160529 0.112677 -0.534001 -0.237760 -0.016653 0.392384 -0.164069 0.062011 0.076753 -0.063064 0.214425 -0.106733 0.302322 -0.103532 0.216932 -0.034033 -0.102671 0.188697 -0.030794 -0.007063 -0.210448 0.194216 0.045101 -0.248227 0.152279 -0.020716 0.063821 0.076084 -0.250873 -0.004243 -0.196146 0.184438 0.245523 0.041540 0.046849 0.182073 -0.111215 0.261716 -0.269898 -0.356333 0.183313 0.062957 0.106311 0.045038 0.348032 -0.361108 0.184046 0.218142 0.194326 0.469715 0.016718 0.451283 -0.092494 -0.015268 -0.106554 -0.094003 -0.160460 -0.634442 -0.263452 -0.484042 -0.168248 -0.181630 -0.154830 0.365019 0.016580 -0.041454 -0.302911 0.162118 -0.164970 -0.275148 -0.061574 0.167577 -0.119456
54 -0.133409 -0.150826 0.126686 -0.107536 0.186715 0.202412 0.180869 0.166355 0.083829 0.027812 -0.154753 0.353743 -0.007751 0.068464 -0.111330 -0.019752 -0.218432 -0.318229 -0.052156 -0.060743 -0.064596 0.279253 0.003918 0.312795 -0.061281 0.069836 -0.132680 -0.009289 0.056741 0.029130 0.162818 0.083688 -0.062490 -0.022504 -0.103605 -0.322835 0.276944 0.114690 0.066091 0.137447 -0.132712 0.294223 0.312879 -0.144201 -0.298213 0.027929 0.027993 -0.052496 -0.115708 -0.073943 -0.041970 0.067241 0.152295 0.158862 0.128054 -0.172008 0.064134 -0.209097 -0.234084 -0.074019 0.075196 -0.475365 -0.251773 -0.148349 -0.117258 0.224453 -0.055506 0.209525 -0.122836 0.098556 -0.020016 0.052680 0.097454 -0.072922 0.193461 -0.085008 0.201997 -0.020458 -0.253278 0.061269 0.068673 -0.260463 0.125780 -0.361784 0.049342 0.222872 0.240996 0.160796 0.032559 0.006000 0.079546 -0.011422 -0.107639 0.043565 -0.237734 0.228524 -0.012711 -0.168103 -0.052186 0.107595 -0.254113 0.133587 0.036682 -0.136969 0.180880 0.245260 0.275931 0.031197 -0.061523 0.150782 -0.100165 -0.072780 -0.310244 -0.137161 -0.177403 -0.134942 -0.093847 0.011126 0.011225 -0.164905 -0.027237 -0.341052 0.090028 -0.092130 -0.031681 -0.073267 -0.003478 -0.110464
27 -0.047922 0.085761 0.069439 -0.034978 0.098219 0.253921 0.223324 0.275954 0.243080 -0.093882 0.273891 0.128252 0.015516 0.247462 -0.160134 -0.200951 -0.300278 -0.333843 -0.174639 -0.116949 -0.239010 0.150224 0.077243 0.412010 0.112083 0.213535 -0.342118 -0.041015 0.102984 -0.053118 0.027764 -0.224077 -0.018373 -0.264256 -0.038122 -0.364323 0.074963 0.053922 -0.027351 -0.065588 -0.059574 0.209335 0.293083 -0.007492 -0.057725 0.047978 0.221656 -0.038827 -0.049241 -0.090797 -0.135801 -0.016261 -0.107290 0.041053 0.358348 -0.296394 0.057893 -0.276546 0.046227 -0.069516 -0.059847 -0.267155 -0.106044 -0.257752 0.334675 0.369725 -0.128884 0.480056 -0.037965 0.125036 -0.029456 0.117508 0.149234 -0.420534 0.090670 -0.131851 0.509718 0.050320 -0.331641 0.468949 0.139601 -0.098536 0.091542 -0.246061 -0.250396 0.160053 0.528667 0.015798 -0.084066 0.038733 0.041740 -0.165758 -0.074764 0.026110 -0.455158 0.020540 0.253174 -0.189820 -0.024417 0.143111 -0.194008 0.233718 0.184196 -0.379713 0.102076 0.167085 0.022583 -0.304760 0.150673 0.147551 -0.043137 0.327221 -0.304026 -0.193927 -0.102038 -0.217040 -0.283441 -0.008643 0.193024 -0.441370 -0.077011 -0.136214 0.051565 -0.083822 -0.306583 0.103298 0.153768 -0.013527
7 -0.199685 0.054244 -0.200032 -0.054278 0.130199 0.191442 -0.003049 0.150545 0.359443 -0.048309 0.377904 0.301220 -0.168862 0.003810 0.123099 -0.155370 -0.410998 -0.137199 0.051331 0.279873 -0.012740 -0.313728 -0.033696 0.225416 0.169643 0.315922 -0.306540 -0.056099 0.043158 -0.020149 0.023263 0.153903 -0.011503 0.034928 0.114174 -0.127723 0.133364 0.316200 0.134202 0.061268 -0.128907 -0.051719 -0.113005 0.207767 0.058430 0.181593 -0.011384 0.132487 -0.123714 -0.260968 -0.302428 0.056420 -0.013799 -0.277098 0.349911 -0.020364 0.005703 -0.304758 -0.070240 -0.191379 0.166125 -0.143230 0.123536 0.361305 0.251837 -0.047273 -0.257026 0.060753 0.146323 0.055019 0.207839 0.098871 0.018640 -0.251662 0.248774 0.157797 0.051002 0.126387 -0.261634 0.398035 -0.052594 0.019015 -0.258772 -0.195488 -0.435483 -0.163781 0.216568 -0.099325 -0.214365 -0.127534 0.347394 -0.079809 0.339144 0.086057 -0.172412 -0.099152 0.171538 0.009916 -0.061834 0.162735 -0.179861 0.065320 -0.420343 0.065965 0.018883 -0.042845 0.074514 -0.148497 0.015892 -0.260946 0.132038 0.166434 -0.231094 -0.122823 -0.137426 -0.043728 -0.423106 0.013698 -0.003147 -0.134372 -0.132335 -0.338233 0.117329 0.020971 -0.099203 -0.195606 0.029808 -0.178180
3 -0.149385 0.197512 0.080616 0.004676 0.176120 0.260533 0.186594 0.252070 0.183623 -0.034802 0.318133 0.078095 -0.034943 0.148540 -0.111650 -0.207781 -0.276126 -0.408896 -0.163391 -0.060724 -0.227683 0.069472 0.040824 0.337060 0.181080 0.237450 -0.337147 -0.013230 0.125194 -0.027049 -0.021107 -0.160521 -0.028326 -0.202285 -0.062947 -0.445865 0.103710 0.130975 0.000183 0.001434 -0.015185 0.180565 0.214080 0.042750 -0.079892 -0.004107 0.100996 -0.004585 -0.011533 -0.031204 -0.091400 -0.076856 -0.076685 0.004401 0.412913 -0.206458 0.020336 -0.203515 0.123955 -0.137138 -0.041522 -0.171887 -0.097477 -0.200344 0.360256 0.292053 -0.065095 0.460351 0.013771 0.084799 0.048041 0.091827 0.162569 -0.378638 0.103608 -0.135137 0.391610 0.101972 -0.211494 0.386514 0.122383 -0.058413 0.089197 -0.178734 -0.153912 0.096361 0.506054 0.015803 0.032415 0.054670 -0.000478 -0.125989 -0.066847 -0.019537 -0.392431 -0.011225 0.216096 -0.188894 -0.021613 0.043785 -0.151484 0.212978 0.190344 -0.340262 0.089408 0.109120 -0.059169 -0.267635 0.093086 0.023126 -0.036233 0.307413 -0.232983 -0.103934 -0.113099 -0.066999 -0.252013 -0.048865 0.254892 -0.493971 -0.086077 -0.066731 0.024027 -0.037501 -0.297286 0.076822 0.252381 0.027961
5 -0.360993 0.200380 -0.165676 0.080099 0.465925 0.175645 0.054646 -0.017356 0.186154 0.034484 0.494605 0.067407 -0.157153 -0.002691 0.174788 -0.362415 -0.210186 -0.338561 -0.052589 0.367959 0.053335 -0.304796 -0.091966 0.057661 0.430071 0.261800 -0.511262 -0.159274 -0.001384 0.029612 -0.211630 0.154786 0.019257 0.308473 0.161610 -0.425413 -0.073149 0.245547 -0.060310 0.113970 -0.010017 0.108444 -0.106162 0.002142 -0.129308 0.033714 -0.216505 0.085884 0.135532 -0.117601 -0.064472 -0.183839 -0.009870 -0.183325 0.485072 -0.043201 0.060826 -0.125311 0.218520 -0.580032 0.147667 0.228973 0.119982 0.188043 0.385437 -0.074414 -0.140211 0.023344 0.410117 0.134465 -0.021704 -0.037903 0.197174 -0.395252 0.046991 -0.178144 0.114358 0.315196 -0.073944 0.202977 -0.178591 0.159565 0.107575 0.058242 0.023065 -0.252181 0.479096 -0.084589 -0.012657 0.233661 0.107721 -0.094164 0.049983 -0.237338 -0.339294 -0.016326 -0.132730 -0.013481 0.311428 -0.163139 0.037195 0.011076 0.008693 -0.331415 0.037940 0.024568 -0.124289 -0.127029 -0.180453 -0.291356 -0.072077 0.060648 -0.174071 -0.033093 -0.211978 0.190265 -0.036240 -0.368706 0.520637 -0.405924 0.000804 -0.029397 -0.014313 0.097688 -0.297964 -0.044412 0.375473 -0.093053
13 -0.322598 0.053430 -0.018589 0.061827 0.149081 0.236636 -0.038363 -0.054178 -0.061972 0.062635 0.289400 0.244839 -0.025033 0.053752 0.058105 -0.033114 -0.228488 -0.208879 0.164605 0.416138 -0.027216 -0.119988 -0.089581 0.072604 0.128916 0.309100 -0.472193 0.000187 -0.125998 0.035267 -0.119391 0.225884 -0.141454 0.237479 0.081903 -0.386280 0.122085 0.293781 -0.042048 0.237852 -0.190509 -0.109563 0.090436 0.166507 -0.133225 0.122894 -0.134211 0.106617 -0.232780 -0.119533 -0.108340 0.068675 -0.086244 -0.251803 0.242491 -0.129096 -0.185733 -0.022843 0.056802 -0.507356 0.134813 0.029168 0.042530 0.144438 0.423099 -0.076486 -0.217265 -0.002363 0.367794 -0.040495 0.013366 0.065121 0.007568 -0.329234 0.179086 0.137337 0.121723 0.202480 -0.110637 0.296922 0.115013 -0.098329 0.057422 0.028598 -0.289185 0.019466 0.255279 -0.077650 -0.024783 -0.014919 0.208277 0.014643 -0.173789 -0.026640 -0.206739 -0.063059 -0.021233 -0.031709 0.118849 -0.193028 -0.145533 -0.046455 -0.267070 -0.211205 -0.137591 0.035425 -0.121818 -0.187157 -0.048451 -0.218245 -0.039333 0.255917 -0.146251 0.148832 0.030628 0.099264 -0.397611 -0.142562 0.011217 -0.330512 -0.006263 -0.180297 0.208875 0.177937 -0.118129 -0.100281 0.209629 -0.085006
12 -0.269072 0.166860 -0.120656 -0.067101 0.101259 0.218103 -0.032256 0.171129 0.232557 0.059905 0.429222 0.233848 -0.133647 -0.027625 0.072628 -0.062918 -0.439981 -0.255272 0.121128 0.218672 -0.048856 -0.285744 -0.036778 0.298502 0.142781 0.381901 -0.291238 -0.006908 0.053812 0.051979 0.009853 0.178885 -0.110422 0.045222 0.053883 -0.297949 0.147533 0.441147 0.172155 0.091483 -0.093680 -0.060185 -0.157431 0.271110 0.014330 0.159023 -0.053427 0.235371 -0.082901 -0.198086 -0.248654 0.019979 -0.027928 -0.323420 0.415477 -0.078074 -0.057257 -0.294106 -0.033913 -0.178900 0.203981 -0.080536 0.109485 0.301196 0.376141 0.026438 -0.207982 0.200598 0.148331 0.053688 0.252414 0.084713 0.044367 -0.259950 0.221884 0.164025 0.117993 0.163695 -0.187834 0.492528 0.024186 -0.004882 -0.228016 -0.158356 -0.475296 -0.144630 0.231530 -0.078343 -0.046998 -0.204346 0.316310 -0.066801 0.217174 -0.001334 -0.208881 -0.165652 0.230719 -0.037222 -0.066696 0.093175 -0.280875 0.049270 -0.265903 0.084726 0.077288 -0.111363 0.041611 -0.270777 0.041907 -0.315354 0.087570 0.286812 -0.279604 -0.011504 -0.146975 0.024595 -0.553686 -0.016615 0.023506 -0.252991 -0.142801 -0.306306 0.211865 0.010160 -0.185376 -0.140805 0.176856 -0.130071
31 -0.148831 0.064132 -0.136274 -0.026885 0.160646 0.118458 0.037043 0.173889 0.199698 -0.073223 0.232736 0.087840 -0.059860 0.020364 0.046250 -0.053657 -0.269188 -0.106869 -0.006105 0.067631 0.028546 -0.192637 -0.009307 0.328574 0.074822 0.219355 -0.149836 -0.084414 -0.037373 0.059740 0.000159 0.206038 -0.002793 0.163434 0.141038 -0.118247 0.039339 0.279175 0.109282 -0.005960 -0.062087 0.037697 -0.155535 0.078936 -0.022497 0.063573 0.019883 0.233982 0.062181 -0.176753 -0.155850 0.030329 -0.000741 -0.163817 0.363245 -0.148739 -0.010841 -0.319924 -0.135282 -0.132660 0.255022 -0.049468 0.100577 0.228748 0.150263 0.094740 -0.219594 0.129959 0.060208 0.126329 0.047229 0.003080 0.046495 -0.151758 0.082899 0.061790 0.174505 0.093386 -0.253902 0.341031 -0.013089 0.063026 -0.081374 -0.121270 -0.240125 -0.149691 0.114107 0.066292 -0.057321 -0.068094 0.265593 -0.106735 0.273456 -0.080312 -0.217389 0.005057 0.129275 0.078086 0.041019 0.252263 -0.273324 0.063425 -0.121764 0.073093 0.136415 -0.018710 0.250715 -0.166607 0.002099 -0.150117 -0.028769 0.048997 -0.410071 -0.138299 -0.167720 -0.163217 -0.312646 -0.103475 0.187906 -0.095692 -0.069091 -0.298341 0.206934 -0.066404 -0.202853 -0.084920 0.079516 -0.148467
30 -0.196562 0.123362 -0.080134 -0.006745 0.180561 0.167748 0.042753 0.123290 0.103839 -0.017978 0.257247 0.049890 -0.049536 0.013493 0.035359 -0.014526 -0.245750 -0.206120 0.019876 0.103142 -0.015966 -0.136699 -0.052480 0.318926 0.088725 0.243573 -0.214315 -0.062288 -0.048027 0.092294 -0.021222 0.229183 -0.038024 0.201544 0.114916 -0.257024 0.010926 0.321009 0.093587 0.035559 -0.042719 0.044212 -0.138660 0.073306 -0.058874 0.030333 -0.040992 0.232437 0.031313 -0.133347 -0.109244 0.018074 -0.039260 -0.169009 0.393328 -0.152796 -0.048311 -0.301291 -0.067714 -0.183333 0.256086 -0.016534 0.087800 0.157418 0.251475 0.098241 -0.191314 0.173416 0.114572 0.132087 0.023867 0.006564 0.051608 -0.174401 0.038545 0.022877 0.189842 0.150277 -0.223531 0.348626 0.021495 0.053497 0.005973 -0.070914 -0.190670 -0.135976 0.146983 0.084766 0.002305 -0.048830 0.227290 -0.081846 0.145862 -0.135300 -0.236956 0.011818 0.095711 0.071029 0.062475 0.121702 -0.268151 0.053288 -0.041189 -0.022759 0.135597 -0.003958 0.179749 -0.222507 -0.013129 -0.161133 -0.060432 0.091098 -0.415857 -0.066335 -0.149452 -0.109075 -0.322300 -0.186892 0.242263 -0.170586 -0.060527 -0.246935 0.222576 -0.002759 -0.237871 -0.057778 0.171586 -0.131679
29 -0.195710 0.151514 -0.044670 -0.009017 0.209154 0.210538 0.049836 0.140893 0.216648 -0.025849 0.311320 0.148868 -0.108531 -0.003275 0.030988 -0.117645 -0.309704 -0.284593 -0.010120 0.133964 -0.113212 -0.121853 -0.055841 0.231784 0.143749 0.250799 -0.258815 -0.005913 0.107195 -0.012153 0.010462 0.064168 0.001296 -0.018549 0.024967 -0.286162 0.091096 0.238314 0.121486 0.049221 -0.009388 0.063541 -0.021086 0.085258 -0.022525 0.035081 -0.065910 0.059680 -0.059831 -0.125094 -0.170000 0.010668 -0.035830 -0.113684 0.357095 -0.024744 0.022341 -0.205210 0.059889 -0.175256 0.055773 -0.132942 -0.016733 0.117816 0.264565 0.055442 -0.127904 0.185876 0.074491 0.101875 0.142787 0.087783 0.056034 -0.207169 0.132967 0.018843 0.109833 0.135424 -0.209528 0.330068 -0.027800 -0.001021 -0.080752 -0.166270 -0.180702 -0.084529 0.257806 -0.026077 -0.052561 -0.065347 0.171621 -0.068855 0.155556 0.006497 -0.159906 -0.050166 0.126394 -0.064173 -0.066243 0.025525 -0.126102 0.089267 -0.113856 -0.130943 0.054185 0.030547 0.011857 -0.175917 -0.004036 -0.147756 0.054783 0.146946 -0.199003 -0.071321 -0.107600 -0.031273 -0.253646 -0.095096 0.163852 -0.292791 -0.123224 -0.198300 0.052993 0.015604 -0.142763 -0.082215 0.116835 -0.130492
55 -0.038028 0.107824 0.046117 -0.036682 0.083282 0.233930 0.208092 0.262995 0.253563 -0.093770 0.304753 0.082720 0.006999 0.226188 -0.141097 -0.173760 -0.301540 -0.308300 -0.160217 -0.120602 -0.219722 0.109466 0.058760 0.425764 0.108597 0.222012 -0.311658 -0.058978 0.091126 -0.032030 0.023262 -0.185383 -0.008003 -0.222678 -0.009416 -0.337702 0.024960 0.086596 -0.011291 -0.092168 -0.032659 0.190310 0.210844 0.004769 -0.021874 0.049218 0.215988 0.005626 -0.015371 -0.106623 -0.146631 -0.017943 -0.117808 0.004358 0.375100 -0.289866 0.056996 -0.314128 0.039656 -0.054966 -0.014984 -0.223780 -0.056621 -0.217273 0.347239 0.361604 -0.133692 0.465443 -0.037449 0.141603 -0.029702 0.103114 0.138573 -0.388269 0.059096 -0.120727 0.493989 0.062718 -0.335123 0.487661 0.125352 -0.053936 0.077293 -0.225631 -0.272871 0.099527 0.474143 0.020278 -0.091962 0.015993 0.074782 -0.164321 -0.014912 -0.015016 -0.443740 0.003765 0.260255 -0.137968 -0.023191 0.170196 -0.205787 0.221624 0.187489 -0.326395 0.121458 0.129360 0.046867 -0.329559 0.162146 0.108547 -0.044555 0.320573 -0.339347 -0.196812 -0.116532 -0.232675 -0.302203 -0.038220 0.228801 -0.398135 -0.076848 -0.140057 0.070752 -0.088537 -0.328882 0.099491 0.150142 -0.023985
56 -0.343037 0.218386 -0.016714 0.066329 0.334155 0.208797 0.082251 0.095078 0.030394 0.075927 0.333486 0.077402 -0.127893 0.035243 0.013438 -0.217575 -0.165758 -0.386167 -0.072412 0.187833 -0.054669 -0.135876 -0.032864 0.118755 0.298256 0.241121 -0.435417 -0.034226 -0.012974 0.039049 -0.132457 0.066665 -0.040903 0.064593 -0.009442 -0.483164 0.130178 0.257562 -0.052131 0.153622 -0.075039 0.112893 0.073034 0.092995 -0.159175 0.017632 -0.131782 0.094679 0.044724 -0.015622 -0.020262 -0.136329 0.000745 -0.130648 0.405158 -0.094796 -0.056885 -0.025996 0.163171 -0.391606 0.105327 0.095146 -0.016558 0.001184 0.320274 0.064425 -0.056958 0.229244 0.258189 -0.004480 0.052591 0.004219 0.174668 -0.323859 0.081513 -0.085745 0.139094 0.167958 -0.006547 0.173790 0.085578 0.015683 0.132960 0.033036 -0.025500 -0.061182 0.449326 -0.002406 0.165832 0.157230 -0.004876 -0.049408 -0.058531 -0.114250 -0.288908 -0.030564 0.035272 -0.089587 0.111358 -0.141637 -0.069402 0.134177 0.069741 -0.208179 0.015470 0.039888 -0.130612 -0.103248 -0.115812 -0.163177 -0.070614 0.185750 -0.109670 0.059831 -0.114667 0.198100 -0.144748 -0.164502 0.297716 -0.448817 -0.001391 0.020177 0.018562 0.090492 -0.219084 0.009190 0.340068 0.060481
6 -0.358663 0.198768 -0.177115 0.075606 0.459365 0.153933 0.037870 -0.004528 0.171523 0.052011 0.464027 0.049316 -0.176481 -0.033712 0.177466 -0.355545 -0.188521 -0.311678 -0.049055 0.344546 0.090885 -0.344891 -0.086178 0.034199 0.428474 0.240575 -0.466336 -0.163751 -0.009020 0.042319 -0.216288 0.168624 0.023641 0.317539 0.154607 -0.395616 -0.054122 0.253812 -0.058068 0.111254 -0.014332 0.101147 -0.133841 0.023281 -0.125216 0.038658 -0.226938 0.111601 0.177988 -0.108730 -0.053291 -0.202949 0.025161 -0.184677 0.462191 -0.021001 0.055330 -0.112514 0.192718 -0.548684 0.183813 0.259322 0.135312 0.205402 0.331488 -0.097402 -0.121114 0.004223 0.392666 0.104702 -0.010815 -0.062823 0.205206 -0.343333 0.048488 -0.168446 0.066113 0.295951 -0.032614 0.145054 -0.182234 0.166122 0.095830 0.070910 0.041278 -0.274517 0.441816 -0.079007 0.009513 0.239647 0.110172 -0.089933 0.081618 -0.251243 -0.310606 -0.024183 -0.135973 -0.003774 0.304116 -0.145851 0.045552 0.010150 0.011884 -0.252217 0.049357 -0.003671 -0.108415 -0.081061 -0.194545 -0.320836 -0.067643 0.025205 -0.160307 -0.021737 -0.230925 0.209815 -0.021625 -0.349813 0.501396 -0.372617 0.011102 -0.013848 -0.014330 0.079588 -0.274848 -0.059698 0.377072 -0.076660
